tree
version=v4
num_class=1
num_tree_per_iteration=1
label_index=0
max_feature_idx=294
objective=regression
feature_names=MSSubClass LotFrontage LotArea OverallQual OverallCond YearBuilt YearRemodAdd MasVnrArea BsmtFinSF1 BsmtFinSF2 BsmtUnfSF TotalBsmtSF 1stFlrSF 2ndFlrSF LowQualFinSF GrLivArea BsmtFullBath BsmtHalfBath FullBath HalfBath BedroomAbvGr KitchenAbvGr TotRmsAbvGrd Fireplaces GarageYrBlt GarageCars GarageArea WoodDeckSF OpenPorchSF EnclosedPorch 3SsnPorch ScreenPorch PoolArea MiscVal MoSold YrSold TotalSF TotalBath HouseAge RemodAge HasBasement HasGarage HasFireplace OverallScore ExteriorScore BsmtScore Qual_X_GrLivArea Qual_X_TotalSF Qual_X_LotArea BsmtQual_X_BsmtFinSF1 Neighborhood_TE Exterior1st_TE Exterior2nd_TE MSZoning_C_(all) MSZoning_FV MSZoning_RH MSZoning_RL MSZoning_RM Street_Grvl Street_Pave LotShape_IR1 LotShape_IR2 LotShape_IR3 LotShape_Reg LandContour_Bnk LandContour_HLS LandContour_Low LandContour_Lvl Utilities_AllPub Utilities_NoSeWa LotConfig_Corner LotConfig_CulDSac LotConfig_FR2 LotConfig_FR3 LotConfig_Inside LandSlope_Gtl LandSlope_Mod LandSlope_Sev Neighborhood_Blmngtn Neighborhood_Blueste Neighborhood_BrDale Neighborhood_BrkSide Neighborhood_ClearCr Neighborhood_CollgCr Neighborhood_Crawfor Neighborhood_Edwards Neighborhood_Gilbert Neighborhood_IDOTRR Neighborhood_MeadowV Neighborhood_Mitchel Neighborhood_NAmes Neighborhood_NPkVill Neighborhood_NWAmes Neighborhood_NoRidge Neighborhood_NridgHt Neighborhood_OldTown Neighborhood_SWISU Neighborhood_Sawyer Neighborhood_SawyerW Neighborhood_Somerst Neighborhood_StoneBr Neighborhood_Timber Neighborhood_Veenker Condition1_Artery Condition1_Feedr Condition1_Norm Condition1_PosA Condition1_PosN Condition1_RRAe Condition1_RRAn Condition1_RRNe Condition1_RRNn Condition2_Artery Condition2_Feedr Condition2_Norm Condition2_PosA Condition2_PosN Condition2_RRAe Condition2_RRAn Condition2_RRNn BldgType_1Fam BldgType_2fmCon BldgType_Duplex BldgType_Twnhs BldgType_TwnhsE HouseStyle_1.5Fin HouseStyle_1.5Unf HouseStyle_1Story HouseStyle_2.5Fin HouseStyle_2.5Unf HouseStyle_2Story HouseStyle_SFoyer HouseStyle_SLvl RoofStyle_Flat RoofStyle_Gable RoofStyle_Gambrel RoofStyle_Hip RoofStyle_Mansard RoofStyle_Shed RoofMatl_ClyTile RoofMatl_CompShg RoofMatl_Membran RoofMatl_Metal RoofMatl_Roll RoofMatl_Tar&Grv RoofMatl_WdShake RoofMatl_WdShngl Exterior1st_AsbShng Exterior1st_AsphShn Exterior1st_BrkComm Exterior1st_BrkFace Exterior1st_CBlock Exterior1st_CemntBd Exterior1st_HdBoard Exterior1st_ImStucc Exterior1st_MetalSd Exterior1st_Plywood Exterior1st_Stone Exterior1st_Stucco Exterior1st_VinylSd Exterior1st_Wd_Sdng Exterior1st_WdShing Exterior2nd_AsbShng Exterior2nd_AsphShn Exterior2nd_Brk_Cmn Exterior2nd_BrkFace Exterior2nd_CBlock Exterior2nd_CmentBd Exterior2nd_HdBoard Exterior2nd_ImStucc Exterior2nd_MetalSd Exterior2nd_Other Exterior2nd_Plywood Exterior2nd_Stone Exterior2nd_Stucco Exterior2nd_VinylSd Exterior2nd_Wd_Sdng Exterior2nd_Wd_Shng MasVnrType_BrkCmn MasVnrType_BrkFace MasVnrType_Stone ExterQual_Ex ExterQual_Fa ExterQual_Gd ExterQual_TA ExterCond_Ex ExterCond_Fa ExterCond_Gd ExterCond_Po ExterCond_TA Foundation_BrkTil Foundation_CBlock Foundation_PConc Foundation_Slab Foundation_Stone Foundation_Wood BsmtQual_Ex BsmtQual_Fa BsmtQual_Gd BsmtQual_NoBsmt BsmtQual_TA BsmtCond_Fa BsmtCond_Gd BsmtCond_NoBsmt BsmtCond_Po BsmtCond_TA BsmtExposure_Av BsmtExposure_Gd BsmtExposure_Mn BsmtExposure_No BsmtExposure_NoBsmt BsmtFinType1_ALQ BsmtFinType1_BLQ BsmtFinType1_GLQ BsmtFinType1_LwQ BsmtFinType1_NoBsmt BsmtFinType1_Rec BsmtFinType1_Unf BsmtFinType2_ALQ BsmtFinType2_BLQ BsmtFinType2_GLQ BsmtFinType2_LwQ BsmtFinType2_NoBsmt BsmtFinType2_Rec BsmtFinType2_Unf Heating_Floor Heating_GasA Heating_GasW Heating_Grav Heating_OthW Heating_Wall HeatingQC_Ex HeatingQC_Fa HeatingQC_Gd HeatingQC_Po HeatingQC_TA CentralAir_N CentralAir_Y Electrical_FuseA Electrical_FuseF Electrical_FuseP Electrical_Mix Electrical_SBrkr KitchenQual_Ex KitchenQual_Fa KitchenQual_Gd KitchenQual_TA Functional_Maj1 Functional_Maj2 Functional_Min1 Functional_Min2 Functional_Mod Functional_Sev Functional_Typ GarageType_2Types GarageType_Attchd GarageType_Basment GarageType_BuiltIn GarageType_CarPort GarageType_Detchd GarageType_NoGarage GarageFinish_Fin GarageFinish_NoGarage GarageFinish_RFn GarageFinish_Unf GarageQual_Ex GarageQual_Fa GarageQual_Gd GarageQual_NoGarage GarageQual_Po GarageQual_TA GarageCond_Ex GarageCond_Fa GarageCond_Gd GarageCond_NoGarage GarageCond_Po GarageCond_TA PavedDrive_N PavedDrive_P PavedDrive_Y SaleType_COD SaleType_CWD SaleType_Con SaleType_ConLD SaleType_ConLI SaleType_ConLw SaleType_New SaleType_Oth SaleType_WD SaleCondition_Abnorml SaleCondition_AdjLand SaleCondition_Alloca SaleCondition_Family SaleCondition_Normal SaleCondition_Partial
feature_infos=[-0.87256275623892166:3.147672552810648] [-2.1940411080358624:10.827594319010061] [-3.751176719973921:6.1264902230543958] [-3.6884129023269017:2.8214253161520091] [-4.1129698933427488:3.0785702794481651] [-3.2878236270816039:1.2828389943341163] [-1.6893684979547681:1.2178427314346332] [-0.57075013377863593:7.0564378566469461] [-0.9730181828073764:11.405752927121783] [-0.28865283111224538:6.6998869612527647] [-1.2841756198907901:4.0042950005181988] [-5.8940380927953511:1.7176734746738629] [-2.1441720802090702:9.1326812803227959] [-0.79516322725724453:3.9369627591698944] [-0.1202417237346724:11.647749407789959] [-4.3650357785209426:4.1107599445988869] [-0.81996436545863938:4.9633591783559181] [-0.24106103579929669:8.1386797324619717] [-2.841822193737443:2.6055218800349862] [-0.76162067199865446:3.2167914250247285] [-3.5149518159777289:6.2949973382922524] [-4.751486354069578:8.8686119645330095] [-2.7804693394516362:4.6048888817722364] [-0.95122648823328915:3.7039377782044842] [-4.1203243954219824:0.31146025572572172] [-2.3654399470362519:2.9888892354023961] [-2.2129629830885067:4.4215260041528026] [-0.75217583786135922:6.0876349999395378] [-0.704483250333654:7.5541981744426776] [-0.35932490040553128:8.6753091037384102] [-0.1163392861482225:17.217232781030106] [-0.27020835420156092:8.3414617819780688] none [-0.087687811517698597:31.165267973997778] [-1.9691114485941159:2.1008923949607752] [-1.3676547331070554:1.6452097110066422] [-6.8996868385333912:4.8277097846350463] [-1.5419321067390677:4.8264437796514246] [-1.2086044235344646:3.2887811524963322] [-1.160729071552653:1.7956163716503462] [-6.2015691126890991:0.16124951311981511] [-4.1260988061393649:0.24235968331928109] [-1.056381573573445:0.94662764385152842] [-3.565833401493093:6.0907960051596639] [-3.6700333011018857:5.2110417590231206] [-3.982113867655249:1.7244882591377069] [-1.8013526106634368:9.0156855791873767] [-1.8758131973903296:10.98085530179536] [-0.89061378887400711:21.1776673207786] [-0.850436852527234:13.524173710705419] [-2.0380674199874029:2.2564609921274035] [-5.9738203292208327:3.1742256956424857] [-3.2495377601899804:2.0183798831000974] none [0:1] none [0:1] [0:1] none none [0:1] [0:1] none [0:1] [0:1] [0:1] [0:1] [0:1] none none [0:1] [0:1] [0:1] none [0:1] [0:1] [0:1] none none none none [0:1] none [0:1] [0:1] [0:1] [0:1] [0:1] none [0:1] [0:1] none [0:1] [0:1] [0:1] [0:1] [0:1] [0:1] [0:1] [0:1] [0:1] [0:1] none [0:1] [0:1] [0:1] none none none none none none none none none none none none none none [0:1] [0:1] [0:1] [0:1] [0:1] [0:1] none [0:1] none none [0:1] [0:1] [0:1] none [0:1] none [0:1] none none none none none none none none none none none none none [0:1] none [0:1] [0:1] none [0:1] [0:1] none [0:1] [0:1] [0:1] none none none none none none [0:1] [0:1] none [0:1] none [0:1] none [0:1] [0:1] [0:1] [0:1] none [0:1] [0:1] [0:1] none [0:1] [0:1] none [0:1] [0:1] none [0:1] [0:1] [0:1] [0:1] [0:1] none none [0:1] [0:1] [0:1] [0:1] [0:1] [0:1] [0:1] [0:1] none [0:1] [0:1] [0:1] [0:1] [0:1] [0:1] [0:1] [0:1] [0:1] [0:1] [0:1] [0:1] [0:1] none [0:1] none [0:1] [0:1] [0:1] [0:1] none [0:1] none none none none [0:1] [0:1] [0:1] none [0:1] [0:1] [0:1] [0:1] [0:1] none none [0:1] [0:1] [0:1] [0:1] [0:1] none none [0:1] [0:1] none none [0:1] none [0:1] none [0:1] none [0:1] [0:1] [0:1] [0:1] [0:1] [0:1] none [0:1] none [0:1] none [0:1] none [0:1] none [0:1] none [0:1] [0:1] [0:1] [0:1] [0:1] none none none none none [0:1] none [0:1] [0:1] none none none [0:1] [0:1]
tree_sizes=1367 1339 1445 1371 1449 1524 1461 1455 1387 1373 1464 1463 1385 1465 1464 1471 1393 1478 1561 1481 1486 1484 1388 1461 1545 1476 1480 1478 1389 1383 1478 1566 1389 1481 1309 1477 1300 1478 1478 1493 1297 1305 1380 1275 1470 1292 1465 1390 1542 1452 1296 1390 1481 1385 1360 1287 1477 1478 1309 1204 1480 1478 1393 1390 1387 1301 1384 1483 1477 1311 1399 1308 1296 1404 1404 1398 1485 1300 1474 1491 1113 1475 1229 1196 1293 1300 1214 1292 1386 1399 1301 1311 1490 1405 1123 1323 947 1502 1585 1473 1316 1319 1046 1234 1043 1001 1037 1577 1313 1419 1194 1145 948 1230 1133 1227 1113 1120 1388 1018 1193 1318 1113 1182 1041 1113 1123 1398 1228 1017 1192 1024 855 957 768 1051 1193 1058 937 863 942 1050 1140 936 1046 959 1208 962 775 780 1046 1126 1136 695 750 1031 1226 685 876 1110 1062 700 1135 1299 773 600 682 1202 1032 690 1034 1415 851 959 1412 593 1419 948 768 867 1205 873 696 958 1302 1011 667 1042 763 874 864 602 1216 964 1053 609 872 671 859 873 1378 1144 964 850 686 1044 612 781 853 852 1033 864 1049 1274 1105 850 1049 876 695 941 788 1089 1030 941 1048 924 1128 1141 783 694 612 1160 1028 787 778 1198 1059 861 944 762 966 771 1306 1125 925 937 782 841 1131 782 1291 917 783 690 867 983 696 773 1178 1125 1031 1219 878 1054 778 773 1227 1051 963 1199 861 868 1076 856 782 1106 1162 1030 783 1013 878 1212 782 863 1126 1221 1234 1023 965 1191 765 1029 845 1117 1475 784 766 1219 865 1379 1127 1026 971 1044 850 844 1029 774 1052 1178 947 766 1044 1022 866 1002 933 765 1130 785 762 1037 1015 930 770 745 905 1028 853 1096 694 1016 763 662 854 1134 829 767 1203 1373 837 763 861 664 1109 970 1245 1082 910 680 1588 674 785 1116 1224 1260 776 1112 875 943 923 706 1371 737 1031 1036 1014 876 1123 1226 1055 1153 667 859 1283 963 1143 689 1205 1053 1301 1146 974 842 1051 869 1050 695 768 777 1106 1310 966 1204 773 1084 837 698 1105 748 1030 1295 701 1111 1119 889 1036 1114 878 1333

Tree=0
num_leaves=15
num_cat=0
split_feature=46 46 50 46 11 46 50 50 37 46 46 11 37 209
split_gain=84.8068 16.257 13.2477 6.20529 4.40907 4.27474 2.07746 1.85413 1.72221 1.57662 1.39893 1.246 1.08124 0.122174
threshold=0.043981722333970408 1.0929756016371581 -0.83766228098342344 -0.75795182246151638 0.17275282689646948 -1.1978773673577419 0.26009934331037127 0.76080499675861168 1.0000000180025095e-35 0.2957672544961899 -0.45515344215153214 0.45683843091438014 -1.2235133124195428 1.0000000180025095e-35
decision_type=2 2 2 2 2 2 2 2 2 2 2 2 2 2
left_child=2 4 5 12 8 -1 -5 13 -2 -6 -7 -9 -4 -3
right_child=1 7 3 6 9 10 -8 11 -10 -11 -12 -13 -14 -15
leaf_value=12.005617921807382 12.029082210614636 12.046724766325184 12.018451849223226 12.026968030935437 12.036086497275699 12.018025654332973 12.031926609828504 12.047062165852401 12.035411319142973 12.042367369528096 12.024361203845368 12.056028836130116 12.02397940185269 12.041336018389229
leaf_weight=23 54 20 55 159 60 156 143 39 127 113 46 44 100 29
leaf_count=23 54 20 55 159 60 156 143 39 127 113 46 44 100 29
internal_value=12.0307 12.0402 12.0238 12.0268 12.0368 12.0179 12.0293 12.0492 12.0335 12.0402 12.0194 12.0521 12.0219 12.0439
internal_weight=1168 486 682 457 354 225 302 132 181 173 202 83 155 49
internal_count=1168 486 682 457 354 225 302 132 181 173 202 83 155 49
is_linear=0
shrinkage=1


Tree=1
num_leaves=14
num_cat=0
split_feature=47 47 47 36 50 47 47 46 37 36 37 47 10
split_gain=85.7111 22.1788 12.1475 5.07594 3.8355 3.13396 1.41079 1.07114 0.754308 0.682858 0.62 0.593473 0.268674
threshold=0.21046180829714886 -0.66713015942812293 1.3408495887395369 -1.3039682349832655 0.26009934331037127 0.61842903451135622 -0.25696087909617077 -1.2609442911547895 -1.2235133124195428 0.11251908886279911 1.0000000180025095e-35 2.2674739614865955 0.30168639620360066
decision_type=2 2 2 2 2 2 2 2 2 2 2 2 2
left_child=1 3 5 7 6 10 -3 -1 -5 -6 -2 -4 -7
right_child=2 4 11 8 9 12 -8 -9 -10 -11 -12 -13 -14
leaf_value=-0.024919119780713862 0.0024070087902946396 -0.0057186940517773574 0.017994167714207258 -0.011982480280391582 0 0.013458611474402488 -0.0013283029063223778 -0.015825961444067629 -0.0078022208898061059 0.0035980117430351676 0.0065563459870809646 0.025100196125251904 0.0097391712197533505
leaf_weight=21 53 177 80 76 126 61 109 72 121 74 105 27 66
leaf_count=21 53 177 80 76 126 61 109 72 121 74 105 27 66
internal_value=0 -0.00577406 0.0114179 -0.0123266 -0.00184067 0.00811507 -0.00406634 -0.0181544 -0.00948243 0.00133151 0.00520724 0.0200309 0.0116403
internal_weight=1168 776 392 290 486 285 286 93 197 200 158 107 127
internal_count=1168 776 392 290 486 285 286 93 197 200 158 107 127
is_linear=0
shrinkage=0.03


Tree=2
num_leaves=15
num_cat=0
split_feature=47 47 47 36 47 47 46 6 39 49 246 47 49 49
split_gain=80.7414 20.8949 11.4443 4.78586 3.4318 2.95089 1.01284 0.87888 0.829196 0.730104 0.695797 0.560378 0.335637 0.0880064
threshold=0.21046180829714886 -0.66713015942812293 1.3408495887395369 -1.3039682349832655 -0.25696087909617077 0.61842903451135622 -1.2609442911547895 -1.1321530123217991 0.51130236763592862 0.0099003991134445513 1.0000000180025095e-35 2.2674739614865955 1.0312006889533267 1.4287692057712957
decision_type=2 2 2 2 2 2 2 2 2 2 2 2 2 2
left_child=1 3 5 6 7 10 -1 -3 -6 -5 -2 13 -7 -4
right_child=2 4 11 9 8 12 -8 -9 -10 -11 -12 -13 -14 -15
leaf_value=-0.024205526891079816 0.0062741753657424727 -0.0070656725934017698 0.014898336788942647 -0.010565183606146918 0.0020525853617494052 0.0098957358901699388 -0.015357686580860452 -0.0030478126685597761 -0.0016553359650091054 -0.0063324715303840918 0.0016515270719643343 0.024374083328726034 0.014164854971262122 0.019761874189743629
leaf_weight=21 115 72 42 131 157 89 72 176 81 66 43 27 38 38
leaf_count=21 115 72 42 131 157 89 72 176 81 66 43 27 38 38
internal_value=0 -0.00560386 0.0110823 -0.011964 -0.0017858 0.00787593 -0.0176238 -0.00425003 0.000776447 -0.00920141 0.00505328 0.0194427 0.0112972 0.017461
internal_weight=1168 776 392 290 486 285 93 248 238 197 158 107 127 80
internal_count=1168 776 392 290 486 285 93 248 238 197 158 107 127 80
is_linear=0
shrinkage=0.03


Tree=3
num_leaves=14
num_cat=0
split_feature=47 47 47 36 50 47 47 47 10 246 36 47 10
split_gain=76.0772 19.6932 10.7925 4.84728 3.57958 2.77896 1.01245 0.974731 0.826953 0.653827 0.564394 0.526434 0.242323
threshold=0.21046180829714886 -0.65137323885225928 1.3408495887395369 -1.3039682349832655 1.0000000180025095e-35 0.61842903451135622 -0.25696087909617077 -1.3221678576533089 -0.069593219270318044 1.0000000180025095e-35 0.11251908886279911 2.2674739614865955 0.30168639620360066
decision_type=2 2 2 2 2 2 2 2 2 2 2 2 2
left_child=1 3 5 7 6 9 -3 -1 -5 -2 -6 -4 -7
right_child=2 4 11 8 10 12 -8 -9 -10 -11 -12 -13 -14
leaf_value=-0.022849420508513081 0.0060875726053089795 -0.0052741062442742811 0.016951125135024388 -0.0073141634997733141 0.00019274944003804456 0.012692850757991113 -0.0014382981088644426 -0.014653995002093521 -0.011630031280867431 0.0016031072674615478 0.0035007023482068783 0.023668975858949122 0.0091570043128484206
leaf_weight=25 115 166 80 145 125 61 104 68 68 43 75 27 66
leaf_count=25 115 166 80 145 125 61 104 68 68 43 75 27 66
internal_value=0 -0.00543888 0.0107581 -0.0113503 -0.00156785 0.00764396 -0.00381844 -0.0171086 -0.00875393 0.00490374 0.0014594 0.0188775 0.0109647
internal_weight=1168 776 392 306 470 285 270 93 213 158 200 107 127
internal_count=1168 776 392 306 470 285 270 93 213 158 200 107 127
is_linear=0
shrinkage=0.03


Tree=4
num_leaves=15
num_cat=0
split_feature=46 46 50 46 46 50 46 50 50 48 48 37 48 209
split_gain=67.1562 12.9139 10.8617 4.79854 3.44523 3.2821 1.85059 1.65103 1.60696 1.18123 1.16269 0.889711 0.608941 0.108577
threshold=0.043981722333970408 1.0929756016371581 -0.83766228098342344 -0.75795182246151638 -1.1978773673577419 1.0000000180025095e-35 0.47561406318348948 0.76080499675861168 0.26009934331037127 -0.23398721813185402 0.079142059983152865 -1.2235133124195428 0.75698876765031409 1.0000000180025095e-35
decision_type=2 2 2 2 2 2 2 2 2 2 2 2 2 2
left_child=2 5 4 11 -1 10 -7 13 -5 -6 -2 -4 -9 -3
right_child=1 7 3 8 9 6 -8 12 -10 -11 -12 -13 -14 -15
leaf_value=-0.022480375722050663 -0.0029641046046745036 0.014132019693298 -0.010820975675646747 -0.003236598591211259 -0.011245555808253449 0.0045750688691029709 0.0095732234796032968 0.016267111011271207 0.0011232302762024726 -0.005132082337695288 0.0047258549558797051 -0.0058095496690343355 0.023442882461473344 0.0092375282958149906
leaf_weight=23 47 20 55 159 162 148 132 52 143 40 27 100 31 29
leaf_count=23 47 20 55 159 162 148 132 52 143 40 27 100 31 29
internal_value=0 0.00851375 -0.00606709 -0.00338832 -0.0114556 0.00548724 0.0069677 0.0165055 -0.00116538 -0.010081 -9.27078e-05 -0.00766499 0.0192301 0.011538
internal_weight=1168 486 682 457 225 354 280 132 302 202 74 155 83 49
internal_count=1168 486 682 457 225 354 280 132 302 202 74 155 83 49
is_linear=0
shrinkage=0.03


Tree=5
num_leaves=16
num_cat=0
split_feature=47 47 47 36 50 47 47 47 246 5 36 50 48 50 49
split_gain=67.7781 17.6323 9.70259 4.11356 3.05817 2.53107 1.11659 0.894583 0.802536 0.68181 0.566396 0.501029 0.355765 0.293574 0.216669
threshold=0.21046180829714886 -0.66713015942812293 0.89760056210546113 -1.3039682349832655 0.26009934331037127 1.6071513333788217 -0.25696087909617077 -1.3221678576533089 1.0000000180025095e-35 -0.85344897002323095 0.11251908886279911 0.36121671219678181 -0.082191231728204431 0.76080499675861168 1.6001744663853208
decision_type=2 2 2 2 2 2 2 2 2 2 2 2 2 2 2
left_child=1 3 8 7 6 14 -3 -1 12 -5 -6 -10 -2 -7 -4
right_child=2 4 5 9 10 13 -8 -9 11 -11 -12 -13 -14 -15 -16
leaf_value=-0.021717675825724231 0.0041144133854541 -0.0050829964629047425 0.010735248494113598 -0.011387633990398363 0 0.014095441103779843 -0.0011727534604422875 -0.013874177813529967 -0.00095133258953690534 -0.0071388696062470404 0.0032708485992997884 0.0050632231351919474 0.0075809078858913598 0.021126083786998474 0.015071727473160317
leaf_weight=25 47 177 85 56 126 20 109 68 24 141 74 23 110 55 28
leaf_count=25 47 177 85 56 126 20 109 68 24 141 74 23 110 55 28
internal_value=3.321e-08 -0.00513262 0.0101554 -0.0109752 -0.00162475 0.0150708 -0.00361246 -0.0162232 0.00555954 -0.00841321 0.00120659 0.00197363 0.00659476 0.0195009 0.0119589
internal_weight=1168 776 392 290 486 188 286 93 204 197 200 47 157 75 113
internal_count=1168 776 392 290 486 188 286 93 204 197 200 47 157 75 113
is_linear=0
shrinkage=0.03


Tree=6
num_leaves=15
num_cat=0
split_feature=47 47 47 47 47 47 50 50 49 246 236 50 36 49
split_gain=63.8566 16.6503 9.16731 3.8056 2.6544 2.58019 1.16271 0.924289 0.836855 0.625168 0.500799 0.408065 0.402066 0.303329
threshold=0.21046180829714886 -0.75560380042551845 1.3708953938127675 -0.25696087909617077 -1.1658220152934204 0.65371083493122473 -0.83766228098342344 0.37209058868501294 0.0099003991134445513 1.0000000180025095e-35 1.0000000180025095e-35 1.1137829734729263 1.6400234509979323 1.0312006889533267
decision_type=2 2 2 2 2 2 2 2 2 2 2 2 2 2
left_child=1 4 5 6 10 9 -3 -5 -6 -2 -1 -4 -13 -7
right_child=2 3 11 7 8 13 -8 -9 -10 -11 -12 12 -14 -15
leaf_value=-0.014120897769927979 0.0057019869022437233 -0.0073015903614397186 0.013951678228711609 -0.00081018181014936284 -0.011307851640343664 0.0090396535346416972 -0.0031319077425139646 0.002975013785947537 -0.0063964983301444183 0.0013718742279928515 -0.02235101181539622 0.016509511667490005 0.024082643941044805 0.013057882285863159
leaf_weight=30 125 86 37 142 124 86 224 96 53 43 21 39 23 39
leaf_count=30 125 86 37 142 124 86 224 96 53 43 21 39 23 39
internal_value=4.67013e-07 -0.00498142 0.00985778 -0.00213151 -0.0117789 0.00713122 -0.00431806 0.000710127 -0.00989827 0.00462611 -0.0179321 0.0177453 0.0197042 0.0104108
internal_weight=1168 776 392 548 228 293 310 238 177 168 51 99 62 125
internal_count=1168 776 392 548 228 293 310 238 177 168 51 99 62 125
is_linear=0
shrinkage=0.03


Tree=7
num_leaves=15
num_cat=0
split_feature=46 36 46 50 11 48 25 57 37 46 15 39 11 50
split_gain=56.3445 12.0714 10.8902 3.94056 2.96329 1.90567 1.86234 1.61755 1.48586 1.05191 0.846481 0.428535 0.367173 0.202826
threshold=0.043981722333970408 -1.0125727968453775 1.0929756016371581 -0.25541405699518865 0.17275282689646948 -0.57157696571478034 0.98101579198790312 1.0000000180025095e-35 -1.2235133124195428 0.31746459066489896 -0.67503866780851596 1.6744546731584202 0.45683843091438014 0.43912876285577768
decision_type=2 2 2 2 2 2 2 2 2 2 2 2 2 2
left_child=1 5 4 8 7 -1 13 -2 -3 -6 -5 -7 -8 -4
right_child=2 3 6 10 9 11 12 -9 -10 -11 -12 -13 -14 -15
leaf_value=-0.019023001870938708 0.003363675078354572 -0.0089406445596094536 0.0075068182098413155 -0.0038653024612711026 0.0045311293334707441 -0.0095052624229341725 0.014447427652977608 -0.0051199216200443712 -0.0042426971382756298 0.0096272237815617293 0.0011052187160797873 -0.015342545245374952 0.02053651976374828 0.012606436328887938
leaf_weight=41 159 81 27 38 63 79 36 22 277 110 146 20 45 24
leaf_count=41 159 81 27 38 63 79 36 22 277 110 146 20 45 24
internal_value=9.98851e-07 -0.00555558 0.00780006 -0.00350623 0.00501984 -0.0133871 0.0151397 0.00229357 -0.00533594 0.00782537 4.71371e-05 -0.0108561 0.018076 0.0101606
internal_weight=1168 682 486 542 354 140 132 181 358 173 184 99 81 51
internal_count=1168 682 486 542 354 140 132 181 358 173 184 99 81 51
is_linear=0
shrinkage=0.03


Tree=8
num_leaves=14
num_cat=0
split_feature=47 47 47 47 47 264 49 23 47 37 236 47 49
split_gain=56.8867 14.9852 8.19986 3.38623 2.28004 2.22196 1.15249 0.831374 0.652564 0.591451 0.47129 0.307252 0.290666
threshold=0.21046180829714886 -0.65137323885225928 1.3708953938127675 -1.1658220152934204 0.65371083493122473 1.0000000180025095e-35 0.035369234271546361 1.0000000180025095e-35 -0.28602799345040358 1.0000000180025095e-35 1.0000000180025095e-35 2.2674739614865955 1.0312006889533267
decision_type=2 2 2 2 2 2 2 2 2 2 2 2 2
left_child=1 3 4 10 9 8 -5 -7 -3 -2 -1 -4 -6
right_child=2 5 11 6 12 7 -8 -9 -10 -11 -12 -13 -14
leaf_value=-0.01330847624953716 0.0016959484319086185 -0.0014324106865658843 0.014993668030794351 -0.009809638589642249 0.0084827960878610612 -0.0051631884740848764 -0.0053001234264934763 -0.0014431866688387736 0.0017862553796177964 0.0056167243661506003 -0.021225222490050575 0.020679879866008246 0.012376357036828994
leaf_weight=30 55 86 72 171 86 121 84 104 159 113 21 27 39
leaf_count=30 55 86 72 171 86 121 84 104 159 113 21 27 39
internal_value=1.16611e-06 -0.00470083 0.00930512 -0.00985761 0.00672564 -0.00132327 -0.00836238 -0.00347099 0.000643013 0.00436852 -0.0169715 0.0167657 0.00980998
internal_weight=1168 776 392 306 293 470 255 225 245 168 51 99 125
internal_count=1168 776 392 306 293 470 255 225 245 168 51 99 125
is_linear=0
shrinkage=0.03


Tree=9
num_leaves=14
num_cat=0
split_feature=47 47 47 47 46 47 50 50 236 246 50 47 8
split_gain=53.5937 14.1411 7.7259 3.2311 2.34192 2.15178 1.02457 0.802947 0.759405 0.540033 0.383032 0.357344 0.254224
threshold=0.21046180829714886 -0.75560380042551845 1.3708953938127675 -0.25696087909617077 -1.2154281015030974 0.61842903451135622 -0.83766228098342344 0.37209058868501294 1.0000000180025095e-35 1.0000000180025095e-35 1.1137829734729263 2.2674739614865955 1.034913240144457
decision_type=2 2 2 2 2 2 2 2 2 2 2 2 2
left_child=1 4 5 6 -1 9 -3 -5 -6 -2 -4 -12 -7
right_child=2 3 10 7 8 12 -8 -9 -10 -11 11 -13 -14
leaf_value=-0.019417273494932382 0.0051497062313278072 -0.0067511459933272712 0.012685206717958574 -0.00073408148872138534 -0.0085566747738729885 0.0081211109587011193 -0.0028368996335434104 0.0027930154158006489 -0.013645864171162246 0.0010859804886329749 0.015321828505822588 0.022540124294432723 0.011665088079696477
leaf_weight=26 115 86 37 142 163 93 224 96 39 43 41 21 42
leaf_count=26 115 86 37 142 163 93 224 96 39 43 41 21 42
internal_value=1.25815e-06 -0.00456255 0.00903198 -0.00193571 -0.0108271 0.00652766 -0.00395065 0.000681794 -0.0096164 0.00407641 0.0162744 0.0181333 0.00932341
internal_weight=1168 776 392 548 228 293 310 238 202 158 99 62 135
internal_count=1168 776 392 548 228 293 310 238 202 158 99 62 135
is_linear=0
shrinkage=0.03


Tree=10
num_leaves=15
num_cat=0
split_feature=47 47 47 36 50 47 43 47 38 246 36 50 36 49
split_gain=50.5038 13.9021 6.8458 3.41297 2.60363 1.79836 0.762526 0.710314 0.677134 0.605346 0.437747 0.359204 0.354619 0.259058
threshold=0.24334581645547293 -0.65137323885225928 1.3708953938127675 -1.3039682349832655 1.0000000180025095e-35 0.65371083493122473 -1.4500550483500736 -0.25696087909617077 0.95741583550977938 1.0000000180025095e-35 0.11251908886279911 1.1137829734729263 1.6400234509979323 1.0312006889533267
decision_type=2 2 2 2 2 2 2 2 2 2 2 2 2 2
left_child=1 3 5 6 7 9 -1 -3 -5 -2 -6 -4 -13 -7
right_child=2 4 11 8 10 13 -8 -9 -10 -11 -12 12 -14 -15
leaf_value=-0.017776626527309415 0.0053356554363775304 -0.0042910058288249424 0.012314665212835136 -0.0059725139385480791 0.00021923582138151686 0.0079867381954501406 -0.011288681681667054 -0.0011112509972945608 -0.010044657207896997 0.00076428345877777883 0.003031246635712245 0.014673865440487859 0.021641615658998487 0.011675802855938673
leaf_weight=38 117 166 37 156 127 86 55 108 57 36 84 39 23 39
leaf_count=38 117 166 37 156 127 86 55 108 57 36 84 39 23 39
internal_value=2.00106e-06 -0.00430143 0.00902665 -0.00929879 -0.00112964 0.00655471 -0.0141325 -0.00305718 -0.00711811 0.00429147 0.00136188 0.0158031 0.0176088 0.00924507
internal_weight=1168 791 377 306 485 278 93 274 213 153 211 99 62 125
internal_count=1168 791 377 306 485 278 93 274 213 153 211 99 62 125
is_linear=0
shrinkage=0.03


Tree=11
num_leaves=15
num_cat=0
split_feature=47 47 47 50 36 47 47 48 37 15 37 47 49 8
split_gain=47.5926 12.6062 6.8876 2.66242 2.33239 1.75483 1.07505 0.746241 0.517248 0.437758 0.400064 0.368359 0.234864 0.0722793
threshold=0.21046180829714886 -0.73945540356205575 1.3408495887395369 0.3284704523892249 -1.3039682349832655 0.61842903451135622 -0.25696087909617077 -0.48510931636107751 1.0000000180025095e-35 -0.033485711226966038 -1.2235133124195428 2.0516726579475946 1.0312006889533267 0.68837783345260573
decision_type=2 2 2 2 2 2 2 2 2 2 2 2 2 2
left_child=1 4 5 6 7 8 -3 -1 -2 -5 -6 13 -7 -4
right_child=2 3 11 9 10 12 -8 -9 -10 -11 -12 -13 -14 -15
leaf_value=-0.016463263013783619 0.001311661015678611 -0.0044888695094261041 0.010537620506503366 -0.00057317280796123659 -0.0095038754331568873 0.0075093860010306025 -0.00085978084509751116 -0.010157648124478081 0.0050613288097962165 0.0022965504022598592 -0.0059869227022915092 0.018028791760280726 0.011030671259531609 0.01473963033025329
leaf_weight=50 53 225 32 79 62 89 113 43 105 114 90 39 38 36
leaf_count=50 53 225 32 79 62 89 113 43 105 114 90 39 38 36
internal_value=2.79199e-06 -0.00429777 0.00851306 -0.00168656 -0.00991511 0.00602228 -0.00329056 -0.0137188 0.00383856 0.00110953 -0.00749382 0.0150024 0.00866438 0.0129871
internal_weight=1168 776 392 531 245 285 338 93 158 193 152 107 127 68
internal_count=1168 776 392 531 245 285 338 93 158 193 152 107 127 68
is_linear=0
shrinkage=0.03


Tree=12
num_leaves=14
num_cat=0
split_feature=47 47 47 36 47 47 57 46 10 38 246 47 23
split_gain=44.8616 12.3856 6.09056 3.0172 1.88735 1.59432 0.769086 0.725179 0.647671 0.638244 0.56747 0.245293 0.184776
threshold=0.24334581645547293 -0.65137323885225928 1.3708953938127675 -1.3039682349832655 -0.25696087909617077 0.65371083493122473 1.0000000180025095e-35 -1.2609442911547895 -0.10015587054408574 1.3873129861597822 1.0000000180025095e-35 2.2674739614865955 1.0000000180025095e-35
decision_type=2 2 2 2 2 2 2 2 2 2 2 2 2
left_child=1 3 5 7 9 10 -6 -1 -5 -3 -2 -4 -7
right_child=2 4 11 8 6 12 -8 -9 -10 -11 -12 -13 -14
leaf_value=-0.01877366581288251 0.0050535891509567521 -0.0022776819394027688 0.013307213674669397 -0.0054213127378452486 0.0012979725755162929 0.005386752611269122 -0.0040417880551734319 -0.011448548232651736 -0.0091558485880183661 -0.0066243976905243475 0.00063072177349916987 0.018420221924249611 0.0093333541642014791
leaf_weight=21 117 195 72 142 227 22 26 72 71 37 36 27 103
leaf_count=21 117 195 72 142 227 22 26 72 71 37 36 27 103
internal_value=3.28519e-06 -0.0040525 0.00850904 -0.00876949 -0.00105832 0.00617643 0.000723659 -0.0133166 -0.00671714 -0.00300924 0.00404325 0.0149019 0.00871083
internal_weight=1168 791 377 306 485 278 253 93 213 232 153 99 125
internal_count=1168 791 377 306 485 278 253 93 213 232 153 99 125
is_linear=0
shrinkage=0.03


Tree=13
num_leaves=15
num_cat=0
split_feature=46 36 46 43 264 49 57 25 5 43 46 36 12 43
split_gain=39.7912 9.08493 7.40471 2.46075 2.13142 2.11605 1.80347 1.24817 0.785618 0.706733 0.672925 0.630506 0.346492 0.196212
threshold=0.069054199684478665 -0.6694115312470742 1.1620213469562499 -1.4500550483500736 1.0000000180025095e-35 0.87227515756677143 1.0000000180025095e-35 0.98101579198790312 -0.75408673912288926 -1.0160492323207362 -0.59710223699748655 -1.3280427693309129 0.75266989710057264 0.44872039677827752
decision_type=2 2 2 2 2 2 2 2 2 2 2 2 2 2
left_child=1 3 5 8 10 6 -2 -4 -1 -6 -3 -5 -9 -7
right_child=2 4 7 11 9 13 -8 12 -10 -11 -12 -13 -14 -15
leaf_value=-0.018829087575276692 0.0040671604668815389 -0.0027844435047832722 0.0085656086179343137 -0.010439486872623948 -0.0079933837984289442 0.0062805718458257623 -0.0045001022617798293 0.011861603273078799 -0.010549547941423952 -0.0032220441147183566 0.0010897785177138369 -0.0062388542908083256 0.017671870350837705 0.010829154581524605
leaf_weight=26 262 52 43 50 34 23 23 31 31 194 167 144 46 42
leaf_count=26 262 52 43 50 34 23 23 31 31 194 167 144 46 42
internal_value=2.99894e-06 -0.00453588 0.0067454 -0.00909531 -0.00195437 0.00450441 0.00335196 0.0131656 -0.0146374 -0.00397846 0.00014776 -0.00738486 0.0155532 0.00938466
internal_weight=1168 698 470 251 447 350 285 120 57 228 219 194 77 65
internal_count=1168 698 470 251 447 350 285 120 57 228 219 194 77 65
is_linear=0
shrinkage=0.03


Tree=14
num_leaves=15
num_cat=0
split_feature=47 47 47 36 50 47 43 39 49 246 36 50 36 50
split_gain=40.0294 11.0222 5.41836 2.69282 2.14649 1.49954 0.68291 0.623552 0.607063 0.531985 0.369962 0.31456 0.287455 0.256335
threshold=0.24334581645547293 -0.65137323885225928 1.3959498762191094 -1.3039682349832655 1.0000000180025095e-35 0.65371083493122473 -1.4500550483500736 1.335201917381027 0.0099003991134445513 1.0000000180025095e-35 0.11251908886279911 1.1137829734729263 1.6400234509979323 0.37209058868501294
decision_type=2 2 2 2 2 2 2 2 2 2 2 2 2 2
left_child=1 3 5 6 7 9 -1 -3 -5 -2 -6 -4 -13 -7
right_child=2 4 11 8 10 13 -8 -9 -10 -11 -12 12 -14 -15
leaf_value=-0.015986941733039342 0.004787392411601997 -0.0018517449363255828 0.010909542846182983 -0.0075800417070854866 0.00020540063897124127 0.0045810941390015854 -0.0099218781373596604 -0.0051388170630844131 -0.0040363566737192181 0.00050792030034888837 0.0027929918165921289 0.013137984263269523 0.019534613594412803 0.0089434359206245588
leaf_weight=38 117 201 35 136 127 21 55 73 77 36 84 37 23 108
leaf_count=38 117 201 35 136 127 21 55 73 77 36 84 37 23 108
internal_value=2.64741e-06 -0.00382834 0.00803741 -0.00827823 -0.00100335 0.00589514 -0.0125757 -0.00275391 -0.00633786 0.00380978 0.001258 0.0142377 0.0159192 0.00829707
internal_weight=1168 791 377 306 485 282 93 274 213 153 211 95 60 129
internal_count=1168 791 377 306 485 282 93 274 213 153 211 95 60 129
is_linear=0
shrinkage=0.03


Tree=15
num_leaves=15
num_cat=0
split_feature=47 47 47 47 47 47 50 49 264 47 2 50 50 49
split_gain=37.7629 8.92044 7.16441 2.69767 1.46102 1.19592 0.991285 0.913617 0.595945 0.424349 0.29129 0.246109 0.228487 0.194288
threshold=0.089202028213329107 -0.87231266866599877 0.89760056210546113 -0.44726728940528104 1.6071513333788217 -1.3221678576533089 -0.48996956023216681 -0.21397066192627012 1.0000000180025095e-35 0.40130649850170791 0.38842875147970102 0.76080499675861168 -0.55160707695438005 1.6001744663853208
decision_type=2 2 2 2 2 2 2 2 2 2 2 2 2 2
left_child=1 5 6 7 13 -1 10 -3 -5 -8 -2 -6 -7 -4
right_child=2 3 4 8 11 12 9 -9 -10 -11 -12 -13 -14 -15
leaf_value=-0.016840350649677791 -0.0032335425462307675 -0.006356503351065002 0.0078558576190194407 0.00076249344296113483 0.010185309299400876 -0.010198336468811364 0.0030507429954076326 -0.0028230168558050495 -0.0019848280762173234 0.0058275573303758653 0.0017265959903597829 0.016022073830877028 -0.00665729002855145 0.01161468191804557
leaf_weight=25 20 136 85 162 20 93 120 141 124 101 20 55 38 28
leaf_count=25 20 136 85 162 20 93 120 141 124 101 20 55 38 28
internal_value=3.25795e-06 -0.00425507 0.00682325 -0.00247966 0.0112834 -0.0105868 0.00356834 -0.00458529 -0.000420965 0.00435383 -0.00069868 0.0146596 -0.00925211 0.00890728
internal_weight=1168 719 449 563 188 156 261 277 286 221 40 75 131 113
internal_count=1168 719 449 563 188 156 261 277 286 221 40 75 131 113
is_linear=0
shrinkage=0.03


Tree=16
num_leaves=14
num_cat=0
split_feature=47 47 47 47 47 47 39 49 264 48 43 10 39
split_gain=35.6035 7.91449 7.62388 2.01527 1.3754 1.12828 0.976713 0.865014 0.595513 0.588843 0.497962 0.184046 0.179109
threshold=-0.0053394952418523494 0.89760056210546113 -0.87231266866599877 -0.44726728940528104 1.6071513333788217 -1.3221678576533089 0.17204961185853526 -0.2857927770721172 1.0000000180025095e-35 -0.3280597295760635 0.77422475880028063 1.86490941135446 -0.79724397607687425
decision_type=2 2 2 2 2 2 2 2 2 2 2 2 2
left_child=2 6 5 7 11 -1 9 -4 -5 -2 -8 -3 -7
right_child=1 4 3 8 -6 12 10 -9 -10 -11 -12 -13 -14
leaf_value=-0.016354571373416827 0.00041134196599139957 0.0094685811505891195 -0.0063728277958761594 0.00063361535034556346 0.014231315927285897 -0.0056341045879475457 -0.0015492578670069071 -0.0029066781333669358 -0.0023449721615640255 0.0046871645630058838 0.0038338436476505274 0.0058049236227726113 -0.0095695533018220549
leaf_weight=25 36 85 121 134 75 22 51 156 107 198 21 28 109
leaf_count=25 36 85 121 134 75 22 51 156 107 198 21 28 109
internal_value=3.38993e-06 0.00611711 -0.00447557 -0.00270627 0.0109535 -0.0102768 0.00310993 -0.00444904 -0.000680657 0.00404666 1.07281e-05 0.00864597 -0.00897906
internal_weight=1168 494 674 518 188 156 306 277 241 234 72 113 131
internal_count=1168 494 674 518 188 156 306 277 241 234 72 113 131
is_linear=0
shrinkage=0.03


Tree=17
num_leaves=15
num_cat=0
split_feature=46 36 46 236 50 50 36 50 36 49 48 36 48 264
split_gain=31.6173 7.04756 6.14505 2.0612 1.96535 1.81661 1.17724 0.94742 0.742781 0.705043 0.682863 0.608724 0.518621 0.336322
threshold=0.043981722333970408 -0.6694115312470742 1.1620213469562499 1.0000000180025095e-35 1.0000000180025095e-35 -0.35282172112017784 0.49702566630917111 0.37209058868501294 1.6636208623516671 -0.77810536067822489 0.079142059983152865 -1.3114178595503549 -0.48510931636107751 1.0000000180025095e-35
decision_type=2 2 2 2 2 2 2 2 2 2 2 2 2 2
left_child=1 3 4 11 10 9 -6 -4 -9 -3 -2 -1 -5 -7
right_child=2 5 7 12 6 13 -8 8 -10 -11 -12 -13 -14 -15
leaf_value=-0.0094154871829422327 -0.0026323829292086887 -0.0061936467871024845 0.0056535771152703097 -0.017094595299317287 0.0027548951084522743 0.0016326894706177606 0.0066865563312376083 0.011135129273743242 0.018132472186088565 -0.0024606145401966594 0.0031870006769253259 -0.0055236082992197334 -0.0095998275820165877 -0.0011946425997946214
leaf_weight=58 47 61 23 25 127 108 164 73 24 207 28 142 25 56
leaf_count=58 47 61 23 25 127 108 164 73 24 207 28 142 25 56
internal_value=3.06596e-06 -0.0041587 0.00584594 -0.00816113 0.00388277 -0.00182204 0.00499626 0.0117272 0.0130644 -0.00334132 -0.000406992 -0.00670841 -0.0136677 0.000647688
internal_weight=1168 682 486 250 366 432 291 120 97 268 75 200 50 164
internal_count=1168 682 486 250 366 432 291 120 97 268 75 200 50 164
is_linear=0
shrinkage=0.03


Tree=18
num_leaves=16
num_cat=0
split_feature=46 36 46 236 45 39 36 25 42 48 36 48 36 12 26
split_gain=29.7948 6.86896 5.52626 1.97045 1.69389 1.67311 1.12226 1.03129 0.926279 0.731602 0.58877 0.486579 0.365396 0.275812 0.0166823
threshold=0.069054199684478665 -0.6694115312470742 1.1620213469562499 1.0000000180025095e-35 1.0000000180025095e-35 -0.16720314391885802 0.41699221192184127 0.98101579198790312 1.0000000180025095e-35 0.17029018967661688 -1.3114178595503549 -0.48510931636107751 0.08748001400605547 0.75266989710057264 0.66681696870770357
decision_type=2 2 2 2 2 2 2 2 2 2 2 2 2 2 2
left_child=1 3 5 10 8 6 -2 14 -3 -7 -1 -5 -6 -9 -4
right_child=2 4 7 11 12 9 -8 13 -10 -11 -12 -13 -14 -15 -16
leaf_value=-0.0091378100084267173 0.0023649508769405967 -0.0046818433236209787 0.0084491955554112791 -0.016601482141476411 -0.00040659150754966369 -0.0017458226745458026 0.0065622179896515954 0.010260310004465282 -0.0011551344999156539 0.003859887495298277 -0.005319320110121528 -0.0093229095748124206 0.0024263157801258125 0.015434017776808841 0.0053402618809902502
leaf_weight=58 93 153 23 25 104 56 169 31 125 32 143 25 65 46 20
leaf_count=58 93 153 23 25 104 56 169 31 125 32 143 25 65 46 20
internal_value=2.69344e-06 -0.00392454 0.00583737 -0.00788947 -0.00167881 0.00389956 0.00509841 0.0113856 -0.00311667 0.000279375 -0.00647581 -0.0132752 0.000673204 0.0135478 0.0072256
internal_weight=1168 698 470 251 447 350 262 120 278 88 201 50 169 77 43
internal_count=1168 698 470 251 447 350 262 120 278 88 201 50 169 77 43
is_linear=0
shrinkage=0.03


Tree=19
num_leaves=15
num_cat=0
split_feature=47 47 47 47 47 50 46 49 264 47 48 50 50 49
split_gain=29.9299 6.72277 6.50023 1.70888 1.15642 1.04809 1.0237 0.779063 0.521051 0.416207 0.380263 0.266205 0.218124 0.203944
threshold=-0.0053394952418523494 0.89760056210546113 -0.87231266866599877 -0.44726728940528104 1.6071513333788217 -0.48996956023216681 -1.2154281015030974 -0.21397066192627012 1.0000000180025095e-35 0.40130649850170791 -0.11837127127762943 -0.55160707695438005 0.76080499675861168 1.6001744663853208
decision_type=2 2 2 2 2 2 2 2 2 2 2 2 2 2
left_child=2 5 6 7 13 10 -1 -4 -5 -7 -2 -8 -6 -3
right_child=1 4 3 8 12 9 11 -9 -10 -11 -12 -13 -14 -15
leaf_value=-0.015104962208204798 -0.0037906798695254585 0.0069216021072162782 -0.0057093354169547843 0.00062508169289471371 0.0089542295166424347 0.0025942819671352577 -0.0092184178122616065 -0.0024471643252714707 -0.0021607952296811466 0.0052002986883744589 0.0010928237319395347 -0.0056738313098683695 0.01433653397166303 0.010599021961976741
leaf_weight=26 22 85 136 134 20 147 90 141 107 101 36 40 55 28
leaf_count=26 22 85 136 134 20 147 90 141 107 101 36 40 55 28
internal_value=2.69799e-06 0.00560838 -0.00410369 -0.00246947 0.0100662 0.00283594 -0.00946075 -0.00407438 -0.000603223 0.00368427 -0.000741545 -0.00820231 0.0130774 0.00794412
internal_weight=1168 494 674 518 188 306 156 277 241 248 58 130 75 113
internal_count=1168 494 674 518 188 306 156 277 241 248 58 130 75 113
is_linear=0
shrinkage=0.03


Tree=20
num_leaves=15
num_cat=0
split_feature=47 47 47 47 47 50 46 8 264 47 2 4 50 37
split_gain=28.1968 6.33728 6.1264 1.60874 1.08842 0.987216 0.965426 0.685245 0.490641 0.391221 0.318135 0.267939 0.201474 0.129538
threshold=-0.0053394952418523494 0.89760056210546113 -0.87231266866599877 -0.44726728940528104 1.6071513333788217 -0.48996956023216681 -1.2154281015030974 -0.16480111087100233 1.0000000180025095e-35 0.40130649850170791 0.48269464102063991 1.0000000180025095e-35 0.76080499675861168 1.0000000180025095e-35
decision_type=2 2 2 2 2 2 2 2 2 2 2 2 2 2
left_child=2 5 6 7 13 10 -1 -4 -5 -7 -2 -8 -6 -3
right_child=1 4 3 8 12 9 11 -9 -10 -11 -12 -13 -14 -15
leaf_value=-0.014668596727980508 -0.002467758331548523 0.0053344708169780434 -0.0056302740413546552 0.00060646815509535375 0.0086983944177627566 0.0025169793808725786 -0.0094127684496077037 -0.0025470548539735511 -0.0020965715973353428 0.0050458192281863266 0.0019946738501767747 -0.0061437256301963518 0.013914118278239454 0.0084608042907368917
leaf_weight=26 36 30 124 134 20 147 69 153 107 101 22 61 55 83
leaf_count=26 36 30 124 134 20 147 69 153 107 101 22 61 55 83
internal_value=2.77663e-06 0.00544382 -0.00398288 -0.00239612 0.00977213 0.00275165 -0.0091838 -0.00395335 -0.000584944 0.00357505 -0.000719145 -0.00796034 0.0126955 0.00771119
internal_weight=1168 494 674 518 188 306 156 277 241 248 58 130 75 113
internal_count=1168 494 674 518 188 306 156 277 241 248 58 130 75 113
is_linear=0
shrinkage=0.03


Tree=21
num_leaves=15
num_cat=0
split_feature=47 47 47 47 47 47 49 50 264 48 37 49 4 50
split_gain=26.5644 5.97434 5.77445 1.5145 1.3912 0.913842 0.693863 0.687067 0.462009 0.36406 0.35669 0.308928 0.241739 0.185951
threshold=-0.0053394952418523494 0.65371083493122473 -0.87231266866599877 -0.44726728940528104 1.6071513333788217 -1.3221678576533089 -0.21397066192627012 -0.48996956023216681 1.0000000180025095e-35 -0.11837127127762943 1.0000000180025095e-35 1.0487741852124171 1.0000000180025095e-35 0.76080499675861168
decision_type=2 2 2 2 2 2 2 2 2 2 2 2 2 2
left_child=2 7 5 6 11 -1 -4 9 -5 -2 -9 -3 -7 -6
right_child=1 4 3 8 13 12 -8 10 -10 -11 -12 -13 -14 -15
leaf_value=-0.014377973336439866 -0.0036110898966941491 0.0059509834227902646 -0.0053797321842488808 0.00058840886663335059 0.0084498689132077361 -0.0091923046218614808 -0.0022983928778344881 0.0011631089124362914 -0.002034256845777337 0.0012209244413833532 0.0038756933143196549 0.0093130672918632623 -0.0060735987135137502 0.013504148633352347
leaf_weight=25 22 102 136 134 20 67 141 69 107 34 145 47 64 55
leaf_count=25 22 102 136 134 20 67 141 69 107 34 145 47 64 55
internal_value=2.78584e-06 0.00528405 -0.0038657 -0.00232497 0.0089007 -0.00891521 -0.00383595 0.00225072 -0.000567209 -0.000654784 0.00302451 0.00708652 -0.00774894 0.0123247
internal_weight=1168 494 674 518 224 156 277 270 241 56 214 149 131 75
internal_count=1168 494 674 518 224 156 277 270 241 56 214 149 131 75
is_linear=0
shrinkage=0.03


Tree=22
num_leaves=14
num_cat=0
split_feature=36 3 36 21 50 246 236 36 39 49 15 43 50
split_gain=22.7447 5.91551 5.07768 2.43476 1.89047 0.992846 0.982309 0.947414 0.753991 0.300753 0.274296 0.266694 0.0644821
threshold=0.17661197105234308 1.0131369221300894 -1.0125727968453775 1.0000000180025095e-35 0.26009934331037127 1.0000000180025095e-35 1.0000000180025095e-35 1.4243535185661151 1.335201917381027 0.87227515756677143 -0.52929304008444078 1.0000000180025095e-35 1.7958138576121947
decision_type=2 2 2 2 2 2 2 2 2 2 2 2 2
left_child=2 3 6 5 8 -2 11 9 -4 -3 -6 -1 -9
right_child=1 7 4 -5 10 -7 -8 12 -10 -11 -12 -13 -14
leaf_value=-0.008343629148258612 0.0045001793089948262 0.0060195080899766518 -0.0026854058557353932 -0.0053256628026614305 -0.00176951690884942 0.00096710246703468053 -0.013042016079219487 0.0096707569083997174 -0.0058890921788664593 0.0095388878784933174 0.00097076898936079598 -0.0046573946151094369 0.014535148902285484
leaf_weight=64 200 69 244 32 43 116 38 20 96 52 126 38 30
leaf_count=64 200 69 244 32 43 116 38 20 96 52 126 38 30
internal_value=2.73047e-06 0.00468181 -0.00373592 0.00241244 -0.00232694 0.00321983 -0.00878449 0.00924187 -0.00361339 0.00762235 0.000249582 -0.007058 0.012876
internal_weight=1168 519 649 348 509 316 140 171 340 121 169 102 50
internal_count=1168 519 649 348 509 316 140 171 340 121 169 102 50
is_linear=0
shrinkage=0.03


Tree=23
num_leaves=15
num_cat=0
split_feature=46 36 46 237 50 50 11 50 36 49 56 50 48 235
split_gain=22.3846 5.51769 3.9338 1.62536 1.53255 1.47616 0.787958 0.758999 0.608672 0.603486 0.536617 0.504955 0.420658 0.269117
threshold=0.11244887202189681 -0.6694115312470742 1.1620213469562499 1.0000000180025095e-35 -0.35282172112017784 1.0000000180025095e-35 -0.071888076363867986 0.37209058868501294 1.6636208623516671 -0.77810536067822489 1.0000000180025095e-35 -0.83766228098342344 -0.48510931636107751 1.0000000180025095e-35
decision_type=2 2 2 2 2 2 2 2 2 2 2 2 2 2
left_child=1 3 5 12 9 10 -7 -4 -9 -3 -2 -5 -1 -6
right_child=2 4 7 11 13 6 -8 8 -10 -11 -12 -13 -14 -15
leaf_value=-0.014815182019884769 -0.0040396098656383401 -0.0053375844532480609 0.0044887829538201914 -0.007258456218472503 0.0012977499571122614 0 0.0051291570096004893 0.0093594167226472413 0.015631852941513064 -0.0019604960416316247 0.0014814880278072845 -0.0040527025315261218 -0.0081185373279910825 -0.0013941338166727551
leaf_weight=25 23 64 23 93 151 30 232 73 24 211 45 108 25 41
leaf_count=25 23 64 23 93 151 30 232 73 24 211 45 108 25 41
internal_value=2.68679e-06 -0.0032812 0.00524461 -0.00686237 -0.00133945 0.00352023 0.00453992 0.00989359 0.0110856 -0.0027738 -0.000373945 -0.0055794 -0.0117505 0.000703131
internal_weight=1168 718 450 251 467 330 262 120 97 275 68 201 50 192
internal_count=1168 718 450 251 467 330 262 120 97 275 68 201 50 192
is_linear=0
shrinkage=0.03


Tree=24
num_leaves=16
num_cat=0
split_feature=47 47 47 236 50 50 47 42 246 47 0 50 47 2 10
split_gain=22.3727 6.65226 2.95645 1.64104 1.32608 0.742751 0.560475 0.518855 0.450415 0.308643 0.255954 0.232042 0.321323 0.23184 0.0585105
threshold=0.28131901635258522 -0.65137323885225928 1.3408495887395369 1.0000000180025095e-35 -0.35282172112017784 0.50515100605200935 -0.87231266866599877 1.0000000180025095e-35 1.0000000180025095e-35 -1.1658220152934204 0.36898050096756324 1.5271979959492594 2.2674739614865955 -0.42991336724426038 0.40016605030796332
decision_type=2 2 2 2 2 2 2 2 2 2 2 2 2 2 2
left_child=1 3 5 6 7 8 -1 -3 -2 -5 -6 14 -13 -7 -4
right_child=2 4 11 9 10 13 -8 -9 -10 -11 -12 12 -14 -15 -16
leaf_value=-0.006764899072825516 0.0038839288040161757 -0.003466820141192266 0.009686283924657365 -0.014298337791453709 0.0015804085378195824 0.0031764445833245003 -0.0037654182356200174 -0.00076822704161847864 0 -0.0084963186656435326 -0.00062539144983470788 0.0096858309168707246 0.015595974317618779 0.0069925277770988715 0.0059216946123734765
leaf_weight=113 105 128 22 21 174 24 137 136 38 35 62 43 20 88 22
leaf_count=113 105 128 22 21 174 24 137 136 38 35 62 43 20 88 22
internal_value=2.10106e-06 -0.00277764 0.00619011 -0.00625491 -0.00063532 0.00438411 -0.00515469 -0.0020961 0.00287907 -0.0109374 0.000988067 0.0103859 0.0118233 0.00623669 0.00804408
internal_weight=1168 806 362 306 500 255 250 264 143 56 236 107 63 112 44
internal_count=1168 806 362 306 500 255 250 264 143 56 236 107 63 112 44
is_linear=0
shrinkage=0.03


Tree=25
num_leaves=15
num_cat=0
split_feature=47 47 47 47 46 47 50 49 38 47 2 50 49 50
split_gain=21.1489 4.84322 4.62598 1.21985 0.825425 0.793393 0.731518 0.612526 0.399729 0.307451 0.267379 0.249229 0.182805 0.145181
threshold=-0.0053394952418523494 0.89760056210546113 -0.87231266866599877 -0.44726728940528104 -1.2154281015030974 1.6071513333788217 -0.48996956023216681 -0.21397066192627012 0.46138066168285324 0.40130649850170791 0.48269464102063991 -0.55160707695438005 1.6001744663853208 0.76080499675861168
decision_type=2 2 2 2 2 2 2 2 2 2 2 2 2 2
left_child=2 6 4 7 -1 12 10 -4 -5 -8 -2 -6 -3 -7
right_child=1 5 3 8 11 13 9 -9 -10 -11 -12 -13 -14 -15
leaf_value=-0.01301895612395472 -0.0022288852779326859 0.0057862007222733956 -0.0048744000519836579 0.00027826063457381001 -0.007801040179986546 0.0075222771476422031 0.0021289659243240652 -0.0019818290244020573 -0.0023871350954483513 0.0043741790505454825 0.0018606281207074694 -0.0044813782126165748 0.0091766341893837356 0.012066396088472434
leaf_weight=26 36 85 136 171 90 20 147 141 70 101 22 40 28 55
leaf_count=26 36 85 136 171 90 20 147 141 70 101 22 40 28 55
internal_value=2.5828e-06 0.00471515 -0.00344886 -0.00206905 -0.00796906 0.00849959 0.00236019 -0.00342522 -0.000490189 0.00306929 -0.000621598 -0.00684451 0.00672575 0.011009
internal_weight=1168 494 674 518 156 188 306 277 241 248 58 130 113 75
internal_count=1168 494 674 518 156 188 306 277 241 248 58 130 113 75
is_linear=0
shrinkage=0.03


Tree=26
num_leaves=15
num_cat=0
split_feature=46 36 46 236 45 95 36 25 23 37 2 46 36 26
split_gain=18.8535 4.66559 3.31881 1.41343 1.30551 1.22801 0.822144 0.741204 0.67554 0.442686 0.286769 0.222343 0.204214 0.0468876
threshold=0.11244887202189681 -0.6694115312470742 1.1620213469562499 1.0000000180025095e-35 1.0000000180025095e-35 1.0000000180025095e-35 0.41699221192184127 0.98101579198790312 1.0000000180025095e-35 -0.5866757237804936 -0.14451365833824012 -0.48090094773840025 1.6636208623516671 0.66681696870770357
decision_type=2 2 2 2 2 2 2 2 2 2 2 2 2 2
left_child=1 3 5 9 8 6 -2 13 -3 -1 -5 -6 -9 -4
right_child=2 4 7 10 11 -7 -8 12 -10 -11 -12 -13 -14 -15
leaf_value=-0.0064297537873373228 0.001571638361778761 -0.0038595123911252262 0.0068085981749463828 -0.013081022077798843 -0.001099164778428773 -0.0037649808913535841 0.0048585947614761234 0.0091857074410296412 -0.00086544482264299554 -0.003422908674976181 -0.0072093210457400848 0.0012957556937834235 0.013723167075051201 0.0037465451306530405
leaf_weight=110 111 153 23 29 44 20 199 51 128 91 21 142 26 20
leaf_count=110 111 153 23 29 44 20 199 51 128 91 21 142 26 20
internal_value=2.67007e-06 -0.00301088 0.00481362 -0.00630415 -0.00122474 0.00322863 0.00370014 0.00908484 -0.00251421 -0.00510698 -0.0108634 0.000710324 0.0109126 0.00557009
internal_weight=1168 718 450 251 467 330 310 120 281 201 50 186 77 43
internal_count=1168 718 450 251 467 330 310 120 281 201 50 186 77 43
is_linear=0
shrinkage=0.03


Tree=27
num_leaves=15
num_cat=0
split_feature=47 47 47 264 47 46 50 37 48 50 4 8 50 50
split_gain=18.8238 4.3532 4.16483 1.12901 0.965254 0.775651 0.572956 0.537495 0.533837 0.286733 0.286317 0.218562 0.196052 0.131672
threshold=-0.0053394952418523494 0.65371083493122473 -0.87231266866599877 1.0000000180025095e-35 1.6071513333788217 -1.2609442911547895 -0.83766228098342344 1.0000000180025095e-35 -0.33396727462028325 0.42183568423352152 1.0000000180025095e-35 1.034913240144457 -0.48996956023216681 0.76080499675861168
decision_type=2 2 2 2 2 2 2 2 2 2 2 2 2 2
left_child=2 7 5 8 11 -1 -5 9 -4 -2 -7 -3 -9 -6
right_child=1 4 3 6 13 10 -8 12 -10 -11 -12 -13 -14 -15
leaf_value=-0.01306911219961264 -0.0015389717339481016 0.0049887541415113389 -0.0026891911391867325 -0.0050301164617652392 0.0070751858896442822 -0.0079756954811538924 -0.0021623346835591031 0.00022768272237852215 0.0005264425748470517 0.0016266164261097501 -0.0048198949159705077 0.0077947539092543027 0.0033033178209148548 0.011408204787011655
leaf_weight=21 48 98 63 101 20 72 188 24 166 53 63 51 145 55
leaf_count=21 48 98 63 101 20 72 188 24 166 53 63 51 145 55
internal_value=2.4734e-06 0.0044486 -0.00325358 -0.00194402 0.00753623 -0.0075428 -0.0031888 0.00185758 -0.00035301 9.24282e-05 -0.00657132 0.00601476 0.0028881 0.0104005
internal_weight=1168 494 674 518 224 156 289 270 229 101 135 149 169 75
internal_count=1168 494 674 518 224 156 289 270 229 101 135 149 169 75
is_linear=0
shrinkage=0.03


Tree=28
num_leaves=14
num_cat=0
split_feature=47 47 47 21 47 50 47 37 49 27 49 4 50
split_gain=17.8034 5.81956 2.7411 0.932629 0.909172 0.702677 0.671108 0.524843 0.300541 0.290494 0.257959 0.236737 0.121093
threshold=-0.24971856777558757 0.65371083493122473 -0.87916350369898288 1.0000000180025095e-35 1.6071513333788217 -0.83766228098342344 -1.3221678576533089 1.0000000180025095e-35 -0.21397066192627012 0.91188549198868396 1.0487741852124171 1.0000000180025095e-35 0.76080499675861168
decision_type=2 2 2 2 2 2 2 2 2 2 2 2 2
left_child=2 3 6 7 10 8 -1 -2 -4 -7 -3 -8 -6
right_child=1 4 5 -5 12 9 11 -9 -10 -11 -12 -13 -14
leaf_value=-0.012073997590404291 0.0002136274621216341 0.0048155308536353327 -0.0055277061884529714 -0.0041979346563323187 0.0068730377640042993 -0.002214707779314679 -0.0077799650839458275 0.002538089438687306 -0.0019136347026728528 0.00027697570469230413 0.0078462765165604655 -0.00476326553576759 0.011072070257472139
leaf_weight=25 145 102 85 25 20 224 64 232 33 49 47 62 55
leaf_count=25 145 102 85 25 20 224 64 232 33 49 47 62 55
internal_value=2.39063e-06 0.00344882 -0.00397167 0.00127399 0.00731551 -0.00262221 -0.00740597 0.00165493 -0.00456678 -0.00175715 0.00583747 -0.00636837 0.010097
internal_weight=1168 626 542 402 224 391 151 377 118 273 149 126 75
internal_count=1168 626 542 402 224 391 151 377 118 273 149 126 75
is_linear=0
shrinkage=0.03


Tree=29
num_leaves=14
num_cat=0
split_feature=47 47 47 21 47 46 6 2 57 4 49 49 47
split_gain=16.7723 5.48507 2.58406 0.879386 0.856291 0.690536 0.60662 0.49925 0.410953 0.265334 0.242282 0.203625 0.0469876
threshold=-0.24971856777558757 0.65371083493122473 -0.87916350369898288 1.0000000180025095e-35 1.6071513333788217 -1.2609442911547895 -1.2775135737912693 0.57789086237894394 1.0000000180025095e-35 1.0000000180025095e-35 1.0487741852124171 -0.21142377841045998 2.2674739614865955
decision_type=2 2 2 2 2 2 2 2 2 2 2 2 2
left_child=2 3 5 7 10 -1 11 -2 -8 -7 -3 -4 -6
right_child=1 4 6 -5 12 9 8 -9 -10 -11 -12 -13 -14
leaf_value=-0.012400692393495278 0.0010137778564363322 0.004672467496264183 -0.0056418164165833815 -0.0040768403920989765 0.0084329151306681473 -0.0076195891761354027 -0.0012825834318523561 0.0036936346602558 -0.0042549895960925458 -0.0045269068146965678 0.0076157921981066462 -0.0024520923909864254 0.011741576438503605
leaf_weight=21 296 102 64 25 48 69 241 81 52 61 47 34 27
leaf_count=21 296 102 64 25 48 69 241 81 52 61 47 34 27
internal_value=2.11782e-06 0.00334732 -0.00385506 0.00123566 0.00710133 -0.00718983 -0.00254449 0.00160574 -0.00183299 -0.00623694 0.00566548 -0.00460143 0.00980233
internal_weight=1168 626 542 402 224 151 391 377 293 130 149 98 75
internal_count=1168 626 542 402 224 151 391 377 293 130 149 98 75
is_linear=0
shrinkage=0.03


Tree=30
num_leaves=15
num_cat=0
split_feature=47 47 47 264 46 50 47 4 48 37 48 50 50 49
split_gain=15.8582 3.62791 3.4732 0.990785 0.676141 0.622099 0.588866 0.513184 0.4585 0.297238 0.285497 0.240972 0.160836 0.140027
threshold=-0.0053394952418523494 0.89760056210546113 -0.87231266866599877 1.0000000180025095e-35 -1.2154281015030974 0.37209058868501294 1.6895570919184311 -0.9666710677467234 -0.33396727462028325 1.0000000180025095e-35 -0.023755030563180745 -0.55160707695438005 0.91425696797814382 1.6001744663853208
decision_type=2 2 2 2 2 2 2 2 2 2 2 2 2 2
left_child=2 5 4 8 -1 9 13 -5 -4 -2 -7 -6 -8 -3
right_child=1 6 3 7 11 10 12 -9 -10 -11 -12 -13 -14 -15
leaf_value=-0.011467961180127328 -0.0014486235741851851 0.0051253496298034268 -0.0024651394697052637 -0.0074648691391895148 -0.0068092103010596152 0.0018083070244493654 0.0066269357683865918 -0.0025652069379991007 0.00051497597143424856 0.0015889365037779926 0.0042458798130903617 -0.003626734150369175 0.011018269761101058 0.0080058095525018871
leaf_weight=26 49 90 63 21 90 92 22 268 166 67 98 40 45 31
leaf_count=26 49 90 63 21 90 92 22 268 166 67 98 40 45 31
internal_value=1.69281e-06 0.0040828 -0.00298667 -0.00179005 -0.00690426 0.00204277 0.00735901 -0.0029561 -0.000298991 0.000278774 0.00309694 -0.00588805 0.00973912 0.00594748
internal_weight=1168 494 674 518 156 306 188 289 229 116 190 130 67 121
internal_count=1168 494 674 518 156 306 188 289 229 116 190 130 67 121
is_linear=0
shrinkage=0.03


Tree=31
num_leaves=16
num_cat=0
split_feature=47 47 47 48 50 50 39 39 236 50 10 48 50 47 10
split_gain=14.9685 4.58509 2.00034 1.31516 0.943205 0.60563 0.550883 0.417107 0.303611 0.257326 0.243799 0.199821 0.174146 0.275158 0.0603982
threshold=0.28131901635258522 -0.65137323885225928 1.3408495887395369 -0.57498629519303657 -0.35282172112017784 0.50515100605200935 1.5290606349681088 1.335201917381027 1.0000000180025095e-35 -0.51305183129001197 -0.1873160241766825 -0.082191231728204431 1.5271979959492594 2.2674739614865955 0.40016605030796332
decision_type=2 2 2 2 2 2 2 2 2 2 2 2 2 2 2
left_child=1 3 5 8 7 9 -5 -3 -1 -2 -6 -7 14 -14 -4
right_child=2 4 12 6 10 11 -8 -9 -10 -11 -12 -13 13 -15 -16
leaf_value=-0.007073811663580792 -0.00078998413948076112 -0.00094952159318954115 0.0080023234624253675 -0.0032922198544817127 0.0018512202156588243 0.0025121522216359151 -0.0068390256048434152 -0.0036358858013898132 -0.012390742287039756 0.0027354248431558457 -4.9563225590232333e-05 0.0059572273621319744 0.0078470645279369571 0.013143797870193208 0.0045923650899659029
leaf_weight=41 20 190 22 190 116 25 54 74 21 123 120 87 43 20 22
leaf_count=41 20 190 22 190 116 25 54 74 21 123 120 87 43 20 22
internal_value=1.72125e-06 -0.00227151 0.0050637 -0.00515849 -0.000491925 0.00357482 -0.00411412 -0.00172472 -0.00909042 0.00221947 0.000875931 0.00524382 0.00851823 0.00975454 0.00650395
internal_weight=1168 806 362 306 500 255 244 264 62 143 236 112 107 63 44
internal_count=1168 806 362 306 500 255 244 264 62 143 236 112 107 63 44
is_linear=0
shrinkage=0.03


Tree=32
num_leaves=14
num_cat=0
split_feature=47 47 47 21 47 279 50 2 48 39 27 49 50
split_gain=14.167 4.60324 2.16848 0.790474 0.710386 0.604723 0.589467 0.459215 0.305303 0.266097 0.265176 0.215709 0.103859
threshold=-0.24971856777558757 0.65371083493122473 -0.87916350369898288 1.0000000180025095e-35 1.6071513333788217 1.0000000180025095e-35 -0.83766228098342344 0.57789086237894394 -0.58788884382195417 0.46283768823915811 1.0116493606847299 1.0487741852124171 0.76080499675861168
decision_type=2 2 2 2 2 2 2 2 2 2 2 2 2
left_child=2 3 5 7 11 -1 9 -2 -7 -4 -8 -3 -6
right_child=1 4 6 -5 12 8 10 -9 -10 -11 -12 -13 -14
leaf_value=-0.010184852858539671 0.00092462661151637238 0.0042666211604859535 -0.0022840700186789035 -0.0038941609668903623 0.006027775770851544 -0.0079403895876237335 -0.0019701367529158138 0.0034946308701594426 -0.0042462815340567686 -0.005378478435718495 0.00046861810925258123 0.0070407793819904328 0.0098760802187025532
leaf_weight=35 296 102 50 25 20 34 227 81 82 68 46 47 55
leaf_count=35 296 102 50 25 20 34 227 81 82 68 46 47 55
internal_value=1.89085e-06 0.00307654 -0.00354287 0.00114125 0.00651584 -0.00659875 -0.00234125 0.00149252 -0.00541329 -0.00412271 -0.00154805 0.0052028 0.00898216
internal_weight=1168 626 542 402 224 151 391 377 116 118 273 149 75
internal_count=1168 626 542 402 224 151 391 377 116 118 273 149 75
is_linear=0
shrinkage=0.03


Tree=33
num_leaves=15
num_cat=0
split_feature=47 47 47 37 46 50 47 37 43 37 279 6 10 50
split_gain=13.3779 3.03962 2.92306 0.889054 0.608662 0.545695 0.490595 0.441933 0.345509 0.269546 0.265786 0.238541 0.153355 0.134101
threshold=-0.0053394952418523494 0.89760056210546113 -0.87231266866599877 1.0000000180025095e-35 -1.2609442911547895 0.37209058868501294 1.6895570919184311 -1.2235133124195428 0.77422475880028063 1.0000000180025095e-35 1.0000000180025095e-35 -0.98679245085232936 1.86490941135446 0.91425696797814382
decision_type=2 2 2 2 2 2 2 2 2 2 2 2 2 2
left_child=2 5 4 7 -1 9 12 -4 -7 -2 -6 -5 -3 -8
right_child=1 6 3 11 10 8 13 -9 -10 -11 -12 -13 -14 -15
leaf_value=-0.011225042237646201 -0.001415450440221175 0.0060942806058583102 -0.004480835256304729 -0.0027501535825431344 -0.0082181481808423999 0.0022801815311772966 0.0060541204916789073 -0.0018901272901686538 0.005975667631735319 0.0014778779171174391 -0.0046306189902988477 0.00059251336932742999 0.0030908221301205198 0.010107603785136473
leaf_weight=21 49 93 80 21 29 162 22 271 28 67 106 146 28 45
leaf_count=21 49 93 80 21 29 162 22 271 28 67 106 146 28 45
internal_value=1.65962e-06 0.00375026 -0.00274287 -0.00164444 -0.0063374 0.00188172 0.00674969 -0.00250018 0.00286892 0.000228403 -0.00547809 0.000140453 0.00545489 0.00892933
internal_weight=1168 494 674 518 156 306 188 351 190 116 135 167 121 67
internal_count=1168 494 674 518 156 306 188 351 190 116 135 167 121 67
is_linear=0
shrinkage=0.03


Tree=34
num_leaves=13
num_cat=0
split_feature=47 47 236 37 21 47 50 37 15 24 50 50
split_gain=12.6343 4.12678 2.00059 0.952032 0.727847 0.633052 0.577062 0.43266 0.322248 0.250489 0.179175 0.144643
threshold=-0.25696087909617077 0.65371083493122473 1.0000000180025095e-35 -1.2235133124195428 1.0000000180025095e-35 1.3959498762191094 -1.1650536640409879 1.0000000180025095e-35 -0.76817163170702862 1.0000000180025095e-35 0.37209058868501294 1.5271979959492594
decision_type=2 2 2 2 2 2 2 2 2 2 2 2
left_child=2 4 3 9 7 10 -5 -2 -4 -1 -3 -7
right_child=1 5 8 6 -6 11 -8 -9 -10 -11 -12 -13
leaf_value=-0.0081787865736654836 0.00010269374862459576 0.0017770435215735975 -0.010276829926983306 -0.0058541135132312771 -0.0037650276988458169 0.0059874665903319651 -0.0014425352673669604 0.002200718149817251 -0.0053045018251086104 -0.0041955011136325018 0.0051675861244508559 0.0092265572267568718
leaf_weight=20 147 21 37 29 25 37 318 234 28 106 108 58
leaf_count=20 147 21 37 29 25 37 318 234 28 106 108 58
internal_value=1.63712e-06 0.00288547 -0.00336886 -0.00266976 0.00106751 0.00614779 -0.00183561 0.00140149 -0.00829318 -0.00491081 0.00465663 0.00807178
internal_weight=1168 630 538 473 406 224 347 381 65 126 129 95
internal_count=1168 630 538 473 406 224 347 381 65 126 129 95
is_linear=0
shrinkage=0.03


Tree=35
num_leaves=15
num_cat=0
split_feature=47 47 47 5 43 50 50 23 39 246 8 2 25 36
split_gain=11.9407 3.6964 1.57677 1.09887 0.792293 0.7888 0.520692 0.464237 0.436366 0.348459 0.240022 0.167263 0.155941 0.233495
threshold=0.28131901635258522 -0.65137323885225928 1.3408495887395369 -0.82032822638978364 -1.4500550483500736 0.37209058868501294 0.50515100605200935 1.0000000180025095e-35 0.26897897065207621 1.0000000180025095e-35 -0.3347789211154229 -0.42991336724426038 0.98101579198790312 1.6400234509979323
decision_type=2 2 2 2 2 2 2 2 2 2 2 2 2 2
left_child=1 3 6 4 -1 7 9 -3 -5 -2 -7 -8 -4 -14
right_child=2 5 12 8 -6 10 11 -9 -10 -11 -12 -13 13 -15
leaf_value=-0.011145143496719273 0.0028290414239020736 -0.0024771566298790273 0.0047607912770658732 -0.0013504815965332088 -0.0052033885939399135 0.00014123962483672279 0.0021718965892866251 -0.00021863801139717083 -0.0043405689707142299 -0.00044561621332720206 0.002467774568931558 0.0053810016241426879 0.0066883273844917613 0.010766400722726699
leaf_weight=32 105 154 24 74 73 88 24 181 127 38 77 88 53 30
leaf_count=32 105 154 24 74 73 88 24 181 127 38 77 88 53 30
internal_value=1.06049e-06 -0.00202901 0.00452246 -0.00462124 -0.00713057 -0.000430528 0.00319807 -0.00127009 -0.00326673 0.00194097 0.00125335 0.00474519 0.00759211 0.00830867
internal_weight=1168 806 362 306 105 500 255 335 201 143 165 112 107 83
internal_count=1168 806 362 306 105 500 255 335 201 143 165 112 107 83
is_linear=0
shrinkage=0.03


Tree=36
num_leaves=13
num_cat=0
split_feature=47 47 236 37 47 48 253 2 48 26 39 2
split_gain=11.2679 3.64794 1.82896 0.871451 0.731826 0.628984 0.604075 0.577911 0.320199 0.280545 0.131475 0.127319
threshold=-0.24971856777558757 0.53827426462544148 1.0000000180025095e-35 -1.2235133124195428 1.3959498762191094 -0.77972240851658992 1.0000000180025095e-35 0.57789086237894394 -0.48510931636107751 -1.4082153767376566 -0.31259718210916948 0.4419202261350052
decision_type=2 2 2 2 2 2 2 2 2 2 2 2
left_child=2 6 3 9 10 -5 -2 -8 -4 -1 -3 -6
right_child=1 4 8 5 11 -7 7 -9 -10 -11 -12 -13
leaf_value=-0.0079527081417089165 -0.0034080234771328311 0.0045153755347368176 -0.010249582483316772 -0.006661139244383032 0.0052664379119873048 -0.0013624933604255644 0.00049273789032325916 0.00351125876520559 -0.0053849634375955384 -0.003884935751189708 0.0016705728471279142 0.0085026794445158815
leaf_weight=21 27 142 31 21 29 330 267 73 34 105 22 66
leaf_count=21 27 142 31 21 29 330 267 73 34 105 22 66
internal_value=1.28596e-06 0.00274363 -0.00315977 -0.00249643 0.00546459 -0.00170605 0.000805604 0.00115803 -0.00787061 -0.0046438 0.00416438 0.00761117
internal_weight=1168 626 542 477 259 351 367 340 65 126 164 95
internal_count=1168 626 542 477 259 351 367 340 65 126 164 95
is_linear=0
shrinkage=0.03


Tree=37
num_leaves=15
num_cat=0
split_feature=50 36 36 43 36 39 5 36 10 43 36 37 49 15
split_gain=10.0421 3.07681 2.51588 0.747814 0.74283 0.727623 0.608625 0.538764 0.465189 0.383609 0.374531 0.241841 0.198153 0.177769
threshold=0.3284704523892249 0.97382093002096093 -0.641739526836829 -1.4500550483500736 0.11251908886279911 0.94748448220686299 -0.82032822638978364 1.7154410933209754 -0.1873160241766825 -0.79904632430606759 0.21846585128929347 1.0000000180025095e-35 -0.35073830672527673 -0.08577546040319263
decision_type=2 2 2 2 2 2 2 2 2 2 2 2 2 2
left_child=2 4 3 6 13 10 -1 11 -6 -7 -4 -3 -5 -2
right_child=1 7 5 12 8 9 -8 -9 -10 -11 -12 -13 -14 -15
leaf_value=-0.011727059691571272 -0.0010857772862431234 0.0028930239462726082 -0.0010217075145041131 -0.0051486219704096371 0.0041013650079279543 -0.0046184386884973892 -0.004936567241325975 0.011188181410665098 0.0014218167181628209 -0.0014462240772477042 0.0013862160716064113 0.0065073535624101302 -0.0028996459887196328 0.00097815219627227635
leaf_weight=25 77 27 156 84 106 61 31 22 143 89 91 98 87 71
leaf_count=25 77 27 156 84 106 61 31 22 143 89 91 98 87 71
internal_value=7.09883e-07 0.00297961 -0.00259209 -0.00510823 0.00158875 -0.00113663 -0.00817322 0.00667947 0.00258635 -0.00277817 -0.000120469 0.00577962 -0.00404536 -7.55951e-05
internal_weight=1168 544 624 227 397 397 56 147 249 150 247 125 171 148
internal_count=1168 544 624 227 397 397 56 147 249 150 247 125 171 148
is_linear=0
shrinkage=0.03


Tree=38
num_leaves=15
num_cat=0
split_feature=47 47 47 48 50 38 50 23 246 36 8 48 47 10
split_gain=10.0528 3.02361 1.42553 0.973972 0.681711 0.500675 0.487428 0.385789 0.329636 0.263937 0.21191 0.191992 0.135993 0.127311
threshold=0.24334581645547293 -0.65137323885225928 1.3408495887395369 -0.57498629519303657 0.37209058868501294 1.0566228702751645 0.50515100605200935 1.0000000180025095e-35 1.0000000180025095e-35 -1.008801783640384 -0.3347789211154229 -0.082191231728204431 2.2674739614865955 0.40016605030796332
decision_type=2 2 2 2 2 2 2 2 2 2 2 2 2 2
left_child=1 3 6 9 7 -5 8 -3 -2 -1 -6 -8 13 -4
right_child=2 4 12 5 10 -7 11 -9 -10 -11 -12 -13 -14 -15
leaf_value=-0.0091354391734514914 0.0024962114274198108 -0.0023124074168887304 0.0072175841415300966 -0.0025286228162379213 6.2273349367185591e-05 -0.0057873584474902595 0.0018747133900700458 -0.00023349257063572451 -0.00059824538957781908 -0.0042836704801725734 0.0023081437697960671 0.005022973166286861 0.0092493574922638284 0.004155334527823417
leaf_weight=41 114 153 47 185 80 59 28 176 40 21 76 88 27 33
leaf_count=41 114 153 47 185 80 59 28 176 40 21 76 88 27 33
internal_value=4.21483e-07 -0.00191813 0.00402819 -0.00424917 -0.00043553 -0.00334925 0.00283006 -0.00121345 0.00167443 -0.0076338 0.00118326 0.00431121 0.00696951 0.00605834
internal_weight=1168 791 377 306 485 244 270 329 154 62 156 116 107 80
internal_count=1168 791 377 306 485 244 270 329 154 62 156 116 107 80
is_linear=0
shrinkage=0.03


Tree=39
num_leaves=15
num_cat=0
split_feature=47 47 47 264 279 39 49 23 48 209 2 6 13 25
split_gain=9.49401 2.17066 2.13723 0.738642 0.501699 0.417085 0.40498 0.34341 0.317592 0.2878 0.281725 0.257137 0.223488 0.00487635
threshold=-0.0053394952418523494 0.89760056210546113 -0.87231266866599877 1.0000000180025095e-35 1.0000000180025095e-35 -0.1187384645220876 1.6393964725287977 1.0000000180025095e-35 -0.31051343907159012 1.0000000180025095e-35 -1.5543155706349341 -0.066175561545685685 1.5147558983207492 0.98101579198790312
decision_type=2 2 2 2 2 2 2 2 2 2 2 2 2 2
left_child=2 5 4 8 -1 10 12 -5 -4 -7 -2 -6 -3 -8
right_child=1 6 3 7 11 9 13 -9 -10 -11 -12 -13 -14 -15
leaf_value=-0.0086474755791326359 -0.000896042753349651 0.0032536767030685717 -0.0017987099148829104 -0.0031993826092103772 -0.0051451756915982597 0.0026855465576619553 0.0057095218847045383 -0.0010144884903108635 0.00062945227793776814 -0.0012113834920124366 0.0026204388699342957 -0.0016565290774218737 0.0061152406038259563 0.0084028399081333815
leaf_weight=35 21 70 68 178 92 22 21 111 161 64 199 29 52 45
leaf_count=35 21 70 68 178 92 22 21 111 161 64 199 29 52 45
internal_value=6.01494e-07 0.00315891 -0.00231105 -0.00137081 -0.00538539 0.00157786 0.00569449 -0.00237694 -8.32162e-05 -0.000160602 0.00226866 -0.00435408 0.00453755 0.00768866
internal_weight=1168 494 674 518 156 306 188 289 229 86 220 121 122 66
internal_count=1168 494 674 518 156 306 188 289 229 86 220 121 122 66
is_linear=0
shrinkage=0.03


Tree=40
num_leaves=13
num_cat=0
split_feature=47 47 43 36 49 21 50 2 46 38 5 50
split_gain=8.96948 2.94709 1.56038 0.88818 0.583792 0.563786 0.549084 0.397073 0.269456 0.22667 0.175236 0.0721036
threshold=-0.25696087909617077 0.53827426462544148 -1.6128072293610751 -0.53274064686438871 1.6001744663853208 1.0000000180025095e-35 -0.83766228098342344 0.57789086237894394 1.2847800533685463 1.4534510093367057 -0.75408673912288926 0.76080499675861168
decision_type=2 2 2 2 2 2 2 2 2 2 2 2
left_child=2 5 10 6 8 7 -4 -2 -3 -5 -1 -6
right_child=1 4 3 9 11 -7 -8 -9 -10 -11 -12 -13
leaf_value=-0.010173204814195633 0.00046098710195172007 0.003004575448523786 -0.0049528611772028464 -0.00044177226856118067 0.004846241789023307 -0.0035360580162646675 -0.00218333420670508 0.0029042535827699992 0.0055724479746360042 -0.0031444279444951778 -0.0053644386081194333 0.0080567609792431966
leaf_weight=24 268 123 125 185 21 25 150 78 64 33 21 51
leaf_count=24 268 123 125 185 21 25 150 78 64 33 21 51
internal_value=5.79541e-07 0.00243082 -0.00283891 -0.00233163 0.0048821 0.000702968 -0.00346646 0.00102721 0.00392434 -0.000877079 -0.00815973 0.00724067
internal_weight=1168 630 538 493 259 371 275 346 187 218 45 72
internal_count=1168 630 538 493 259 371 275 346 187 218 45 72
is_linear=0
shrinkage=0.03


Tree=41
num_leaves=13
num_cat=0
split_feature=47 47 236 37 47 253 48 2 48 24 50 50
split_gain=8.4522 2.7773 1.47948 0.701836 0.551629 0.539605 0.509323 0.49392 0.280298 0.180476 0.13305 0.125452
threshold=-0.25696087909617077 0.53827426462544148 1.0000000180025095e-35 -1.2235133124195428 1.3959498762191094 1.0000000180025095e-35 -0.77972240851658992 0.57789086237894394 -0.48510931636107751 1.0000000180025095e-35 0.34691032683635309 0.43912876285577768
decision_type=2 2 2 2 2 2 2 2 2 2 2 2
left_child=2 5 3 9 10 -2 -5 -7 -4 -1 -3 -6
right_child=1 4 8 6 11 7 -8 -9 -10 -11 -12 -13
leaf_value=-0.0068668188601732254 -0.0033021802554306172 0.001100249129940163 -0.0092038000324973831 -0.0058937371677973052 0.0038889604264192956 0.00039933269152441831 -0.0011236759522105268 0.0031719426550343632 -0.0046832433729399265 -0.0034650654646733378 0.0039419373115209353 0.0072770375704765307
leaf_weight=20 27 21 31 21 21 270 326 74 34 106 143 74
leaf_count=20 27 21 31 21 21 270 326 74 34 106 143 74
internal_value=2.81128e-07 0.00235948 -0.00275604 -0.00215415 0.00473915 0.000681865 -0.00143708 0.00101193 -0.00699144 -0.00407847 0.00360512 0.00660766
internal_weight=1168 630 538 473 259 371 347 344 65 126 164 95
internal_count=1168 630 538 473 259 371 347 344 65 126 164 95
is_linear=0
shrinkage=0.03


Tree=42
num_leaves=14
num_cat=0
split_feature=46 50 236 50 39 46 37 48 49 27 1 49 246
split_gain=7.76654 2.85718 1.08044 0.877567 0.764738 0.638639 0.52726 0.387211 0.312428 0.294604 0.280469 0.272156 0.103479
threshold=0.46192063324590421 -0.52131578692392877 1.0000000180025095e-35 0.42183568423352152 -0.070273785125317137 2.4752405644917168 -1.2235133124195428 -0.48510931636107751 0.74645911188574854 0.91188549198868396 -0.29876882841445279 0.87227515756677143 1.0000000180025095e-35
decision_type=2 2 2 2 2 2 2 2 2 2 2 2 2
left_child=1 2 6 10 8 11 -1 -4 -3 -6 -2 -5 -12
right_child=3 4 7 5 9 -7 -8 -9 -10 -11 12 -13 -14
leaf_value=-0.0044922797511645343 -0.00073743506272098622 0.00058484198393370123 -0.0097845006742614468 0.0035659690331988807 -0.0019694999387321137 0.010261656931855462 -0.001793716586077353 -0.0045794641056931332 0.0031655046183545637 0.00091606060923256252 0.0035256831272854469 0.0061351829672542709 0.0007897868010660876
leaf_weight=97 28 237 27 115 152 21 224 37 52 38 47 71 22
leaf_count=97 28 237 27 115 152 21 224 37 52 38 47 71 22
internal_value=0 -0.00144908 -0.00336999 0.00411854 9.24104e-05 0.00522664 -0.00262991 -0.00693824 0.00106884 -0.00137491 0.001694 0.0045903 0.00271997
internal_weight=1168 864 385 304 479 207 321 64 289 190 97 186 69
internal_count=1168 864 385 304 479 207 321 64 289 190 97 186 69
is_linear=0
shrinkage=0.03


Tree=43
num_leaves=13
num_cat=0
split_feature=47 47 236 6 21 49 48 2 2 13 36 50
split_gain=7.56032 2.44316 1.32401 0.563948 0.545214 0.43675 0.435099 0.336257 0.249037 0.216459 0.199688 0.0528295
threshold=-0.24971856777558757 0.61842903451135622 1.0000000180025095e-35 -0.55071076644391914 1.0000000180025095e-35 1.6001744663853208 -0.23398721813185402 0.57789086237894394 -0.14451365833824012 1.5147558983207492 -0.45194053582143362 0.76080499675861168
decision_type=2 2 2 2 2 2 2 2 2 2 2 2
left_child=2 4 3 6 7 9 -1 -2 -4 -3 -5 -7
right_child=1 5 8 10 -6 11 -8 -9 -10 -11 -12 -13
leaf_value=-0.0039712237772757362 0.00058899301116586381 0.0027818464448209853 -0.0083792067318651329 -0.0017454079421432278 -0.0033898965272192768 0.004458640459392752 -0.0011310433116900227 0.0028044056147250723 -0.0040822805833071471 0.0052319728582792104 0 0.0074224360406828617
leaf_weight=159 287 103 36 135 25 20 76 80 29 60 107 51
leaf_count=159 287 103 36 135 25 20 76 80 29 60 107 51
internal_value=0 0.00224675 -0.00258885 -0.00202353 0.000785368 0.00466834 -0.00307409 0.00108638 -0.00659847 0.00372843 -0.00098256 0.00670275
internal_weight=1168 626 542 477 392 234 235 367 65 163 242 71
internal_count=1168 626 542 477 392 234 235 367 65 163 242 71
is_linear=0
shrinkage=0.03


Tree=44
num_leaves=15
num_cat=0
split_feature=47 37 47 43 39 50 246 49 2 43 38 46 48 28
split_gain=7.14003 1.77385 1.60656 0.805758 0.708692 0.615251 0.377679 0.317007 0.260414 0.254642 0.229585 0.211657 0.208834 0.0327937
threshold=-0.0053394952418523494 -1.2235133124195428 0.89760056210546113 -1.6128072293610751 -0.070273785125317137 -0.83766228098342344 1.0000000180025095e-35 1.6393964725287977 -1.5543155706349341 0.77422475880028063 1.3873129861597822 1.2847800533685463 -0.21822641698776046 0.7222907800893138
decision_type=2 2 2 2 2 2 2 2 2 2 2 2 2 2
left_child=1 3 6 -1 12 -6 8 11 -2 -8 -5 -4 -3 -9
right_child=2 4 7 10 5 -7 9 13 -10 -11 -12 -13 -14 -15
leaf_value=-0.0098010936516523366 -0.00091820957414481949 -0.00067332260526774452 0.0024134946695826866 -0.0028054288912262564 -0.00410022090628351 -0.0011007434940494352 -0.0012398384919347749 0.0074081340342601566 0.002396435019226646 0.0023566788081079721 -0.0056006562749895718 0.0051324631012689614 0.0011508002606875237 0.0046178275474480215
leaf_weight=24 22 126 58 95 94 190 65 46 196 23 45 64 100 20
leaf_count=24 22 126 58 95 94 190 65 46 196 23 45 64 100 20
internal_value=0 -0.00200448 0.00273914 -0.00471502 -0.00111946 -0.00211496 0.0013769 0.0049215 0.00204557 -0.000250214 -0.00375852 0.00389436 0.000122109 0.00668891
internal_weight=1168 674 494 164 510 284 306 188 218 88 140 122 226 66
internal_count=1168 674 494 164 510 284 306 188 218 88 140 122 226 66
is_linear=0
shrinkage=0.03


Tree=45
num_leaves=13
num_cat=0
split_feature=47 47 43 47 253 47 2 56 37 38 6 47
split_gain=6.73735 2.18244 1.23939 0.628958 0.486237 0.453526 0.43808 0.308191 0.289175 0.271101 0.145498 0.0397078
threshold=-0.24971856777558757 0.53827426462544148 -1.6128072293610751 -0.73945540356205575 1.0000000180025095e-35 1.6895570919184311 0.57789086237894394 1.0000000180025095e-35 -1.2235133124195428 1.3873129861597822 0.22454556139325438 2.2674739614865955
decision_type=2 2 2 2 2 2 2 2 2 2 2 2
left_child=2 4 8 7 -2 10 -6 -4 -1 -5 -3 -7
right_child=1 5 3 9 6 11 -8 -9 -10 -11 -12 -13
leaf_value=-0.00951882214576006 -0.0031597472753242721 0.00082229179587606769 -0.0050966398863782807 -0.00064235367183812096 0.00035663766383628687 0.0052142902292856355 0.0029854150456942721 -0.0024389644881601968 -0.0040996209880458587 -0.0031463252785615624 0.0037124163127087353 0.0078326130940445833
leaf_weight=24 27 21 61 243 267 40 73 145 22 47 171 27
leaf_count=24 27 21 61 243 267 40 73 145 22 47 171 27
internal_value=0 0.00212082 -0.00244402 -0.00198961 0.000619638 0.00422587 0.000936949 -0.00326126 -0.00713323 -0.0010679 0.00341775 0.00641322
internal_weight=1168 626 542 496 367 259 340 206 46 290 192 67
internal_count=1168 626 542 496 367 259 340 206 46 290 192 67
is_linear=0
shrinkage=0.03


Tree=46
num_leaves=15
num_cat=0
split_feature=50 47 36 39 36 43 5 36 48 43 8 10 8 48
split_gain=6.37121 1.75774 1.74392 0.567168 0.552709 0.534504 0.5042 0.398054 0.298151 0.281174 0.215702 0.195588 0.147293 0.105566
threshold=0.36121671219678181 0.74296742850381847 -0.641739526836829 0.94748448220686299 1.7154410933209754 -1.4500550483500736 -0.82032822638978364 0.11251908886279911 -0.2954139302831929 -0.79904632430606759 -0.84909887598402467 -0.18278822398797617 -0.59358384510047624 -0.3182285165547129
decision_type=2 2 2 2 2 2 2 2 2 2 2 2 2 2
left_child=2 7 5 8 10 6 -1 13 -4 -5 -3 -9 -7 -2
right_child=1 4 3 9 -6 12 -8 11 -10 -11 -12 -13 -14 -15
leaf_value=-0.0098531875260747387 -0.0012090139888118162 0.0027404219300361048 -0.0015384967136954195 -0.0038677991223371316 0.0095592084936797616 -0.004349365475238301 -0.0037391749397793317 0.0033125956362485887 0.00059082075659563156 -0.0011527404197348423 0.0051965208681545366 0.0012441892647617127 -0.00236193491940639 0.00054971292691880077
leaf_weight=25 45 66 82 61 21 65 31 74 205 90 94 112 106 91
leaf_count=25 45 66 82 61 21 65 31 74 205 90 94 112 106 91
internal_value=0 0.00254678 -0.00192389 -0.00080567 0.00490978 -0.00405536 -0.00664625 0.00119813 -1.03686e-05 -0.00228752 0.00422533 0.00209646 -0.00315573 -1.48982e-05
internal_weight=1168 503 665 438 181 227 56 322 287 151 160 186 171 136
internal_count=1168 503 665 438 181 227 56 322 287 151 160 186 171 136
is_linear=0
shrinkage=0.03


Tree=47
num_leaves=14
num_cat=0
split_feature=47 47 50 48 36 63 253 38 246 47 48 48 47
split_gain=6.00677 1.96261 0.8208 0.693718 0.537947 0.491235 0.462994 0.399851 0.338345 0.283223 0.227504 0.139209 0.128248
threshold=0.28131901635258522 -0.65137323885225928 0.50515100605200935 -0.58788884382195417 1.6400234509979323 1.0000000180025095e-35 1.0000000180025095e-35 1.0566228702751645 1.0000000180025095e-35 -1.2371196341724056 0.31080011987638406 -0.082191231728204431 0.98504657784790906
decision_type=2 2 2 2 2 2 2 2 2 2 2 2 2
left_child=1 3 8 9 11 10 -7 -5 12 -1 -3 -4 -2
right_child=2 5 4 7 -6 6 -8 -9 -10 -11 -12 -13 -14
leaf_value=-0.009220941226252102 0.0015979402356394779 0.00047005639418848264 0.0015934663176433079 -0.0018630087705761903 0.0088357547673583031 -0.004501434788949067 -0.00060801337560787685 -0.0047429734336090134 -0.00076095133998471567 -0.0043735995133622335 0.0034452350106647434 0.0042792238684648525 0.0036834450023015964
leaf_weight=21 87 160 26 187 24 30 283 60 38 38 27 140 47
leaf_count=21 87 160 26 187 24 30 283 60 38 38 27 140 47
internal_value=0 -0.00143999 0.00320671 -0.00332898 0.00457219 -0.000273602 -0.00100389 -0.002591 0.00166328 -0.00627385 0.000931626 0.00388859 0.00237351
internal_weight=1168 806 362 306 190 500 313 247 172 59 187 166 134
internal_count=1168 806 362 306 190 500 313 247 172 59 187 166 134
is_linear=0
shrinkage=0.03


Tree=48
num_leaves=16
num_cat=0
split_feature=50 48 46 236 36 43 8 6 49 2 20 48 49 46 48
split_gain=5.71328 1.57368 1.5704 0.688809 0.590489 0.439026 0.525651 0.404994 0.293255 0.269012 0.204416 0.14959 0.148667 0.0787709 0.0192642
threshold=0.36121671219678181 -0.24777883759454097 0.46192063324590421 1.0000000180025095e-35 1.4243535185661151 1.0000000180025095e-35 -0.061717793690514992 -0.55071076644391914 0.74645911188574854 -0.14451365833824012 0.77690093901538848 -0.3182285165547129 0.87227515756677143 2.4752405644917168 -0.014151596019903298
decision_type=2 2 2 2 2 2 2 2 2 2 2 2 2 2 2
left_child=1 3 8 7 12 6 -3 -1 11 -5 -7 -2 -4 -6 -10
right_child=2 5 4 9 13 10 -8 -9 14 -11 -12 -13 -14 -15 -16
leaf_value=-0.0036516750491006511 -0.00084373479596299556 -0.0036146344708309309 0.0027496719153727901 -0.0077489595857377237 0.0054890888418345383 9.1748218950150277e-05 0 -0.0013515480557977865 0.0018795588899935994 -0.002932585629634559 0.0024595836852019165 0.00087172982082375447 0.0048219420632686126 0.0092044333176953454 0.003855718763843179
leaf_weight=153 60 60 128 38 27 125 86 138 20 20 45 170 54 20 24
leaf_count=153 60 60 128 38 27 125 86 138 20 20 45 170 54 20 24
internal_value=0 -0.00182211 0.00241144 -0.00320862 0.00424305 -0.000276052 -0.00148442 -0.00257953 0.000859861 -0.00621684 0.00074679 0.000409515 0.0034039 0.00729141 0.00308586
internal_weight=1168 665 503 349 229 316 146 291 274 58 170 230 182 47 44
internal_count=1168 665 503 349 229 316 146 291 274 58 170 230 182 47 44
is_linear=0
shrinkage=0.03


Tree=49
num_leaves=15
num_cat=0
split_feature=50 36 36 36 4 43 5 37 10 6 15 8 46 43
split_gain=5.39248 1.59095 1.47295 0.631201 0.538439 0.476156 0.457334 0.452173 0.234306 0.134004 0.133962 0.07388 0.0605974 0.0312186
threshold=0.37209058868501294 -0.641739526836829 0.41699221192184127 1.4243535185661151 -0.9666710677467234 -1.4500550483500736 -0.82032822638978364 1.0000000180025095e-35 1.7460546564009192 -0.11462908203550903 -0.52929304008444078 -0.49708031412299869 2.4752405644917168 1.0000000180025095e-35
decision_type=2 2 2 2 2 2 2 2 2 2 2 2 2 2
left_child=1 5 10 8 -3 6 -1 -6 -4 -7 13 -12 -5 -2
right_child=2 4 3 12 7 9 -8 -9 -10 -11 11 -13 -14 -15
leaf_value=-0.0092454929781647828 -0.0016017966689541934 -0.0041540291392672306 0.0037603329847566776 0.0054159797092692722 -0.0011692515053819078 -0.0035863645823289441 -0.0034268481389208316 0.00081114182418556824 0.0013037646733439312 -0.0016939151858466424 0.00035685457833278627 0.0016789853320471988 0.0089414495463882165 0
leaf_weight=25 23 36 169 26 255 106 31 172 51 65 95 73 20 21
leaf_count=25 23 36 169 26 255 106 31 172 51 65 95 73 20 21
internal_value=0 -0.00169361 0.00244831 0.00393279 -0.000673922 -0.00374816 -0.00619372 -0.000364488 0.00321291 -0.00289848 0.000561912 0.000955639 0.00717025 -0.000862572
internal_weight=1168 690 478 266 463 227 56 427 220 171 212 168 46 44
internal_count=1168 690 478 266 463 227 56 427 220 171 212 168 46 44
is_linear=0
shrinkage=0.03


Tree=50
num_leaves=13
num_cat=0
split_feature=47 47 236 21 6 49 2 1 46 13 27 25
split_gain=5.09313 1.6617 0.973527 0.417114 0.415461 0.367143 0.280678 0.278851 0.229194 0.219391 0.1717 0.048205
threshold=-0.25696087909617077 0.53827426462544148 1.0000000180025095e-35 1.0000000180025095e-35 -0.55071076644391914 1.6001744663853208 0.57789086237894394 -0.075795619047228133 -0.94965984158771033 1.5147558983207492 -0.29326204185954868 0.98101579198790312
decision_type=2 2 2 2 2 2 2 2 2 2 2 2
left_child=2 3 4 6 7 9 -2 -1 -4 -3 -6 -7
right_child=1 5 8 -5 10 11 -8 -9 -10 -11 -12 -13
leaf_value=-0.0036124097057618197 0.00033401163263167648 0.002109566469188957 -0.0074261840199503831 -0.0031125640628429556 -0.0014227783857879448 0.0038016317386466722 0.0023898632602203972 -0.0014626013295188892 -0.0034127100392837414 0.0044147675775069121 0.00018152116542798465 0.0063139153275405995
leaf_weight=116 268 125 33 25 140 25 78 118 32 62 99 47
leaf_count=116 268 125 33 25 140 25 78 118 32 62 99 47
internal_value=0 0.00183133 -0.00213965 0.00053151 -0.00165013 0.00367248 0.000811667 -0.00255192 -0.00557742 0.00290923 -0.000747748 0.00554672
internal_weight=1168 630 538 371 473 259 346 234 65 187 239 72
internal_count=1168 630 538 371 473 259 346 234 65 187 239 72
is_linear=0
shrinkage=0.03


Tree=51
num_leaves=14
num_cat=0
split_feature=50 37 46 25 43 47 23 43 49 270 49 15 51
split_gain=4.86602 1.45801 1.26309 0.663345 0.574331 0.48323 0.342997 0.257649 0.249443 0.171908 0.156076 0.123568 0.0274969
threshold=0.37209058868501294 -1.2235133124195428 0.46192063324590421 1.0000000180025095e-35 -1.6128072293610751 2.2674739614865955 1.0000000180025095e-35 -1.4500550483500736 0.58142106006124894 1.0000000180025095e-35 0.87227515756677143 -0.52929304008444078 1.0567301646887741
decision_type=2 2 2 2 2 2 2 2 2 2 2 2 2
left_child=1 4 8 7 -1 10 -5 -3 11 -6 -4 -2 -10
right_child=2 3 5 6 9 -7 -8 -9 12 -11 -12 -13 -14
leaf_value=-0.0084401597892120473 -0.001138652286814669 -0.0048707382749766112 0.0027586201750993272 -0.0011420288860785124 -0.0052230753531546468 0.0082640210396569703 0.00078222440964885573 -0.0017342335353828519 0.0033241306984709805 -0.0025518008177233421 0.004715503992568499 0.00072520363495142965 0.0015771455052148164
leaf_weight=24 38 29 130 145 34 22 193 166 31 99 68 161 28
leaf_count=24 38 29 130 145 34 22 193 166 31 99 68 161 28
internal_value=0 -0.00160885 0.00232569 -0.00084967 -0.00414552 0.00399467 -3.5353e-05 -0.00223847 0.000881023 -0.00329095 0.00346608 0.000350378 0.00258516
internal_weight=1168 690 478 533 157 220 338 195 258 133 198 199 59
internal_count=1168 690 478 533 157 220 338 195 258 133 198 199 59
is_linear=0
shrinkage=0.03


Tree=52
num_leaves=15
num_cat=0
split_feature=50 48 36 46 36 4 5 39 15 16 48 51 49 7
split_gain=4.58695 1.41612 1.24678 0.581776 0.57212 0.437994 0.371549 0.360914 0.323333 0.194764 0.109018 0.0661442 0.0592318 0.0351542
threshold=0.37209058868501294 -0.24777883759454097 0.36789337586812293 -1.2154281015030974 1.4243535185661151 1.0000000180025095e-35 -0.75408673912288926 0.46283768823915811 1.0943147666211996 1.0000000180025095e-35 -0.3182285165547129 0.14278665728112369 1.6393964725287977 -0.35488632272885517
decision_type=2 2 2 2 2 2 2 2 2 2 2 2 2 2
left_child=1 3 10 -1 9 6 -3 -5 -7 -4 13 -12 -6 -2
right_child=2 5 4 7 12 8 -8 -9 -10 -11 11 -13 -14 -15
leaf_value=-0.0073059787077990436 -0.0013703643813627892 -0.0050561872145959306 0.0019927917968811147 -0.0013599327823163234 0.0045391644911308374 0.0002242745786253992 -0.00072305695081644166 -0.0034314349701827654 0.0035822445983067154 0.0038442726631016874 -2.5923658751862791e-05 0.0012848021669963393 0.0079246013586719843 6.3712781528010956e-05
leaf_weight=25 30 20 122 144 20 147 142 181 31 111 46 100 26 23
leaf_count=25 30 20 122 144 20 147 142 181 31 111 46 100 26 23
internal_value=0 -0.00156211 0.00225794 -0.00289934 0.00354985 -0.000172295 -0.00130415 -0.00252979 0.000842595 0.00290031 0.000422972 0.000854059 0.0066444 -0.000702818
internal_weight=1168 690 478 350 279 340 162 325 178 233 199 146 46 53
internal_count=1168 690 478 350 279 340 162 325 178 233 199 146 46 53
is_linear=0
shrinkage=0.03


Tree=53
num_leaves=14
num_cat=0
split_feature=50 37 36 25 26 36 0 43 37 26 46 8 46
split_gain=4.32187 1.32817 1.17634 0.604383 0.58568 0.518013 0.317297 0.234792 0.184224 0.17768 0.108904 0.0777455 0.0604163
threshold=0.37209058868501294 -1.2235133124195428 0.41699221192184127 1.0000000180025095e-35 -1.4082153767376566 1.4243535185661151 0.72370714588370177 -1.4500550483500736 1.0000000180025095e-35 -0.59411024008040136 -0.59112341547544223 -0.3347789211154229 2.4752405644917168
decision_type=2 2 2 2 2 2 2 2 2 2 2 2 2
left_child=1 4 10 7 -1 8 -5 -3 -4 -6 -2 -12 -7
right_child=2 3 5 6 9 12 -8 -9 -10 -11 11 -13 -14
leaf_value=-0.0076521254644612785 -0.00096721956708158054 -0.004631066502630711 0.0013646593647122028 0.00042295262325216422 -0.0018868313409760595 0.0047904426338435668 -0.0019072190315104448 -0.0016344870897776775 0.0034223140545918619 -0.0043341513537177995 0.00023694739072499977 0.0015504590713933699 0.0081447643435427122
leaf_weight=31 35 29 62 274 74 26 64 166 158 52 102 75 20
leaf_count=31 35 29 62 274 74 26 64 166 158 52 102 75 20
internal_value=0 -0.00151612 0.00219191 -0.00079129 -0.00393728 0.00351874 -1.37382e-05 -0.00211679 0.0028648 -0.00294663 0.000504322 0.000815958 0.00645494
internal_weight=1168 690 478 533 157 266 338 195 220 126 212 177 46
internal_count=1168 690 478 533 157 266 338 195 220 126 212 177 46
is_linear=0
shrinkage=0.03


Tree=54
num_leaves=14
num_cat=0
split_feature=46 50 237 50 50 49 48 48 37 49 15 47 36
split_gain=4.07413 1.58548 0.590018 0.533046 0.507002 0.455271 0.311763 0.263584 0.252214 0.218882 0.167483 0.09779 0.0663123
threshold=0.46192063324590421 -0.83766228098342344 1.0000000180025095e-35 0.37209058868501294 -0.53731894901689758 1.9215911660805653 -0.23398721813185402 -0.47535158026813756 -1.2235133124195428 0.58142106006124894 1.4059597936834274 0.33137904662931955 1.4243535185661151
decision_type=2 2 2 2 2 2 2 2 2 2 2 2 2
left_child=1 2 7 8 11 10 -4 -1 -3 -5 -6 -2 -7
right_child=4 3 6 9 5 12 -8 -9 -10 -11 -12 -13 -14
leaf_value=-0.008342997329235078 0.0013435391803671207 -0.0027248812946269203 -0.0029206901056034414 0.00029622429238971562 0.0022261799158318791 0.0044668545942753556 0 -0.0036032532601151615 -0.00060757770708538502 0.002389993967389455 0.0042861549903921384 -0.0015105835741216485 0.0075968508411897347
leaf_weight=24 20 62 147 199 156 29 42 29 302 59 55 21 23
leaf_count=24 20 62 147 199 156 29 42 29 302 59 55 21 23
internal_value=0 -0.00104939 -0.00310536 -0.000240962 0.0029831 0.0034654 -0.00227332 -0.00591986 -0.000982914 0.000793994 0.00279498 -4.80599e-05 0.0060251
internal_weight=1168 864 242 622 304 263 189 53 364 258 211 41 52
internal_count=1168 864 242 622 304 263 189 53 364 258 211 41 52
is_linear=0
shrinkage=0.03


Tree=55
num_leaves=13
num_cat=0
split_feature=47 47 43 38 253 2 6 49 4 37 13 34
split_gain=3.84249 1.26833 0.863698 0.4115 0.383129 0.343983 0.305499 0.278804 0.236691 0.197276 0.196834 0.0334093
threshold=-0.25696087909617077 0.53827426462544148 -1.6128072293610751 1.3873129861597822 1.0000000180025095e-35 0.57789086237894394 0.079184999923784263 1.9215911660805653 1.0000000180025095e-35 -1.2235133124195428 1.5147558983207492 0.43589082259741069
decision_type=2 2 2 2 2 2 2 2 2 2 2 2
left_child=2 4 9 6 -2 -6 -4 10 -5 -1 -3 -9
right_child=1 7 3 8 5 -7 -8 11 -10 -11 -12 -13
leaf_value=-0.0077703235789854073 -0.0029015521224480052 0.0019054089205579178 -0.001680689351892439 -0.0061764312234114521 0.00022154770289097543 0.0025353348972648381 1.0326778382846353e-05 0.0059836087409939091 -0.0023381380840628617 -0.0031980001358315347 0.0040015531730605292 0.003492601982682295
leaf_weight=24 27 136 259 21 270 74 147 34 66 21 67 22
leaf_count=24 27 136 259 21 270 74 147 34 66 21 67 22
internal_value=0 0.00159089 -0.00185826 -0.00147973 0.000454156 0.000733883 -0.00106253 0.00319963 -0.00335837 -0.0058177 0.00262817 0.00513607
internal_weight=1168 630 538 493 371 344 406 259 87 45 203 56
internal_count=1168 630 538 493 371 344 406 259 87 45 203 56
is_linear=0
shrinkage=0.03


Tree=56
num_leaves=15
num_cat=0
split_feature=50 48 48 237 4 5 36 36 15 6 56 43 8 48
split_gain=3.68046 1.15203 1.01051 0.470918 0.392789 0.355934 0.342385 0.314526 0.293076 0.25964 0.241219 0.122908 0.106826 0.08853
threshold=0.37209058868501294 -0.259777620004007 0.30448845172590561 1.0000000180025095e-35 1.0000000180025095e-35 -0.75408673912288926 1.6636208623516671 0.29906321447972345 1.0943147666211996 -0.55071076644391914 1.0000000180025095e-35 0.77422475880028063 0.73224307480600459 -0.35151356512475657
decision_type=2 2 2 2 2 2 2 2 2 2 2 2 2 2
left_child=1 3 7 10 5 -3 12 13 -6 -5 -1 -9 -4 -2
right_child=2 4 6 9 8 -7 -8 11 -10 -11 -12 -13 -14 -15
leaf_value=-0.0070091913407086398 -0.00097763166467267808 -0.0048378176702694453 0.0024648562441486866 -0.0029748015596556608 0.00018031622101280284 -0.00068931120376064601 0.0076729968345978054 0.0016026908404826725 0.0033595006047980858 -0.0010828960234729144 -0.0026384490623783605 0.0041288797387488835 0.0044299162946073176 0.0005576636636710295
leaf_weight=31 46 21 74 151 156 146 21 141 31 129 25 22 58 116
leaf_count=31 46 21 74 151 156 146 21 141 31 129 25 22 58 116
internal_value=0 -0.00139911 0.00202271 -0.00265531 -0.000194217 -0.00125453 0.0040327 0.0010578 0.000738371 -0.00212081 -0.00519112 0.00198504 0.00337766 9.99875e-05
internal_weight=1168 690 478 336 354 167 153 325 187 280 56 163 132 162
internal_count=1168 690 478 336 354 167 153 325 187 280 56 163 132 162
is_linear=0
shrinkage=0.03


Tree=57
num_leaves=15
num_cat=0
split_feature=46 6 26 36 48 4 8 5 16 23 45 48 198 38
split_gain=3.45425 1.41057 0.639217 0.466312 0.36015 0.329181 0.232064 0.191275 0.171874 0.148999 0.196181 0.142048 0.0870571 0.0384992
threshold=0.46192063324590421 -0.55071076644391914 -1.2655130395649767 -0.04353139569830889 0.22754341229422839 1.0000000180025095e-35 -0.25253159357780003 -1.1846564063577034 1.0000000180025095e-35 1.3763556449855978 1.1538280464584114 -0.41958259160442196 1.0000000180025095e-35 -0.82831079026715448
decision_type=2 2 2 2 2 2 2 2 2 2 2 2 2 2
left_child=1 2 11 7 6 -4 12 -3 -5 10 -6 -1 -2 -8
right_child=4 3 5 8 9 -7 13 -9 -10 -11 -12 -13 -14 -15
leaf_value=-0.0076898284130122356 -0.0013495224480732128 -0.0023432987966868833 -0.0027887249430429864 0.00024575959884982906 0.0021650479081942215 -0.00080611619011324357 0.0033374839939933738 -0.00035874415469385661 0.001906167923102674 0.0055606602091874402 0.0046176796507918167 -0.0034661247363047937 0.0010963498533192952 0.0016457341371736089
leaf_weight=22 25 56 175 125 91 143 35 214 109 34 53 20 25 41
leaf_count=22 25 56 175 125 91 143 35 214 109 34 53 20 25 41
internal_value=0 -0.000966017 -0.00239765 5.33587e-05 0.00274705 -0.0019119 0.00146211 -0.000788554 0.00103678 0.0036266 0.00311406 -0.00587569 -7.02449e-05 0.00249702
internal_weight=1168 864 360 504 304 318 126 270 234 178 144 42 50 76
internal_count=1168 864 360 504 304 318 126 270 234 178 144 42 50 76
is_linear=0
shrinkage=0.03


Tree=58
num_leaves=13
num_cat=0
split_feature=50 36 36 48 201 48 23 198 38 48 6 15
split_gain=3.3147 1.05595 0.909113 0.467697 0.432504 0.413187 0.308162 0.277604 0.265539 0.113609 0.0608752 0.0128488
threshold=0.37209058868501294 -0.641739526836829 0.35955457648800909 1.2117227821984076 1.0000000180025095e-35 -0.69954438423484244 1.0000000180025095e-35 1.0000000180025095e-35 1.0566228702751645 -0.3182285165547129 0.36990612286272445 -0.47855731561772857
decision_type=2 2 2 2 2 2 2 2 2 2 2 2
left_child=1 5 9 7 6 -1 -3 -4 -7 11 -11 -2
right_child=2 4 3 -5 -6 8 -8 -9 -10 10 -12 -13
leaf_value=-0.006191149537155236 -0.0013948672476410864 -0.0011567414743405991 0.0040651879048756593 0.0071170578799210488 -0.0044260660554282369 -0.0015825694088250971 0.00043162472715666211 0.0018815573173002183 -0.0040045875527465078 -0.00027710095282111851 0.0011027846138426218 -0.00024184372286415763
leaf_weight=32 24 197 83 23 23 129 243 177 66 34 111 26
leaf_count=32 24 197 83 23 23 129 243 177 66 34 111 26
internal_value=0 -0.00132749 0.00191986 0.00300423 -0.000495569 -0.00300153 -0.000273738 0.00260304 -0.00243388 0.00032353 0.000758996 -0.000870617
internal_weight=1168 690 478 283 463 227 440 260 195 195 145 50
internal_count=1168 690 478 283 463 227 440 260 195 195 145 50
is_linear=0
shrinkage=0.03


Tree=59
num_leaves=12
num_cat=0
split_feature=50 48 48 46 293 46 49 49 24 48 15
split_gain=3.12255 1.00161 0.868555 0.456436 0.362126 0.43262 0.273039 0.253077 0.243044 0.219239 0.113361
threshold=0.37209058868501294 -0.259777620004007 0.30448845172590561 -1.2154281015030974 1.0000000180025095e-35 0.52518042225334038 0.11534137666798601 2.4223084652888471 0.3059480857616077 -0.32969826507962191 1.0222613706250037
decision_type=2 2 2 2 2 2 2 2 2 2 2
left_child=1 3 8 -1 -3 -6 -5 10 9 -2 -4
right_child=2 4 7 6 5 -7 -8 -9 -10 -11 -12
leaf_value=-0.0063580341231651034 -0.00074753570556811816 -0.0028965015491613975 0.002280053470986716 -0.0026293608967279218 -0.00037260114165935928 0.0024169169849746169 -0.00051080874206784822 0.0069784885506544801 0.0040470483259043913 0.0011649167743810974 0.0042727747064966121
leaf_weight=25 67 38 77 234 255 61 77 20 21 237 56
leaf_count=25 67 38 77 234 255 61 77 20 21 237 56
internal_value=0 -0.00128879 0.00186303 -0.00246009 -0.00016479 0.000162344 -0.00211777 0.00372689 0.000967647 0.000732517 0.00316711
internal_weight=1168 690 478 336 354 316 311 153 325 304 133
internal_count=1168 690 478 336 354 316 311 153 325 304 133
is_linear=0
shrinkage=0.03


Tree=60
num_leaves=15
num_cat=0
split_feature=37 47 43 48 5 28 213 237 48 43 38 5 24 46
split_gain=3.08744 0.895489 0.893242 0.517082 0.281715 0.211985 0.201267 0.191774 0.185493 0.123695 0.229131 0.0760004 0.0565754 0.0424011
threshold=1.0000000180025095e-35 0.74296742850381847 -1.4500550483500736 -0.086680672054097782 -0.82032822638978364 0.16365967823058553 1.0000000180025095e-35 1.0000000180025095e-35 -0.28494346798466919 1.0454783938186167 -1.0928628829748481 -0.45600004642186404 0.29271887784773393 0.16548680487874123
decision_type=2 2 2 2 2 2 2 2 2 2 2 2 2 2
left_child=2 6 4 7 -1 -5 8 -4 -2 10 -3 -6 -11 -8
right_child=1 9 3 5 11 -7 13 -9 -10 12 -12 -13 -14 -15
leaf_value=-0.0063878131659967563 -0.0013458962974646981 0.0047092178646242246 -0.0037409654112798827 -0.00029405556555138897 -0.0011918186657130716 0.0018835710984605705 0.0012210554900143674 -0.0013320781748073741 0.00074233920018845572 0.0062742946261702022 0.0017274781913603531 -0.0037845836053602392 0.0035886116051115097 0.0024838210734693957
leaf_weight=34 48 39 34 131 25 56 80 344 167 22 73 27 35 53
leaf_count=34 48 39 34 131 25 56 80 344 167 22 73 27 35 53
internal_value=0 0.00173069 -0.0013719 -0.000927478 -0.00421298 0.000348661 0.000844687 -0.00156597 0.000258167 0.00352177 0.0028248 -0.00264067 0.00476722 0.00176143
internal_weight=1168 517 651 565 86 187 348 378 215 169 112 52 57 133
internal_count=1168 517 651 565 86 187 348 378 215 169 112 52 57 133
is_linear=0
shrinkage=0.03


Tree=61
num_leaves=15
num_cat=0
split_feature=37 43 43 48 5 5 12 6 28 20 37 5 13 235
split_gain=2.91121 0.843191 0.783481 0.486919 0.28587 0.264335 0.257036 0.211205 0.199724 0.183835 0.171818 0.0711641 0.0657475 0.0438752
threshold=1.0000000180025095e-35 -1.4500550483500736 0.44872039677827752 -0.086680672054097782 -0.22415484098773328 -0.82032822638978364 0.43309867405658775 0.27299908188307775 0.16365967823058553 0.77690093901538848 1.3238370421366543 -0.45600004642186404 1.0346685403757196 1.0000000180025095e-35
decision_type=2 2 2 2 2 2 2 2 2 2 2 2 2 2
left_child=1 5 4 7 13 -1 12 -3 -5 -8 -6 -7 -4 -2
right_child=2 3 6 8 10 11 9 -9 -10 -11 -12 -13 -14 -15
leaf_value=-0.0062016539559832636 -0.00035952451774993766 -0.0020828652771804814 0.00061524372387000107 -0.00028530071811771693 0.00063517720798257475 -0.0011574392883250345 0.0032997245161420514 -0.00058594146579079816 0.0018280553513721218 0.0064713637733625042 0.0024352549329650273 -0.0036751009742729364 0.0024555438414550963 -0.0023713810458151703
leaf_weight=34 25 233 32 131 198 25 85 145 56 26 66 27 63 22
leaf_count=34 25 233 32 131 198 25 85 145 56 26 66 27 63 22
internal_value=0 -0.00133198 0.00168076 -0.000899997 0.000713695 -0.00409258 0.00311575 -0.00151963 0.000337976 0.00412056 0.00110401 -0.00256597 0.00187977 -0.00139353
internal_weight=1168 651 517 565 311 86 206 378 187 111 264 52 95 47
internal_count=1168 651 517 565 311 86 206 378 187 111 264 52 95 47
is_linear=0
shrinkage=0.03


Tree=62
num_leaves=14
num_cat=0
split_feature=37 26 47 231 43 39 50 36 36 213 43 37 36
split_gain=2.74365 0.81457 0.804268 0.51255 0.300471 0.231252 0.204872 0.23102 0.20055 0.185083 0.124912 0.0706608 0.0417537
threshold=1.0000000180025095e-35 -1.2655130395649767 0.74296742850381847 1.0000000180025095e-35 0.44872039677827752 1.6259899937616498 0.37209058868501294 1.7154410933209754 0.17661197105234308 1.0000000180025095e-35 0.44872039677827752 -1.2235133124195428 -0.029076731599457197
decision_type=2 2 2 2 2 2 2 2 2 2 2 2 2
left_child=1 5 9 4 -3 11 -4 -8 -5 10 -2 -1 -11
right_child=2 3 6 8 -6 -7 7 -9 -10 12 -12 -13 -14
leaf_value=-0.0043483704695744165 -0.0001348036284036318 -0.0019901386375328037 0.00080979420491975951 -0.00058654742551084908 0.00044550448968164766 -0.0068846845156513153 0.0032087986278824783 0.0069054255097040114 0.0011930316719872011 0.00062426607384501653 0.0016019851434982055 -0.0016271943992469458 0.0020036229993865796
leaf_weight=20 169 302 28 128 51 23 121 20 100 35 46 27 98
leaf_count=20 169 302 28 128 51 23 121 20 100 35 46 27 98
internal_value=0 -0.00129313 0.00163162 -0.000914114 -0.00162951 -0.00433957 0.00332924 0.00379921 0.000182671 0.00079143 0.000228596 -0.00291411 0.00167039
internal_weight=1168 651 517 581 353 70 169 141 228 348 215 47 133
internal_count=1168 651 517 581 353 70 169 141 228 348 215 47 133
is_linear=0
shrinkage=0.03


Tree=63
num_leaves=14
num_cat=0
split_feature=37 43 47 11 46 1 50 36 213 3 6 43 153
